68 242 221 288 5 19 64 182 319 350 179 91 25 20 212 46 214 230 10 103 -129 75 269 327 189 -25 68 88 385 236 -76 310 192 378 177 2 227 132 98 93 224 44 114 187 310 -75 83 60 191 86 73 -95 -27 245 340 131 100 155 305 335 163 345 105 115 302 70 100 233 94 62 307 113 150 45 260 63 -157 -62 157 76 190 -86 238 4 238 330 170 84 42 197 30 206 287 152 253 16 143 233 339 256 -37 229 159 158 98 11 335 25 28 304 356 317 112 293 214 231 257 317 188 -36 147 102 66 161 -4 -108 254 -35 89 270 161 258 243 302 194 194 259 256 182 24 110 176 291 42 239 -46 312 25 250 59
165 -14 -102 -102 98 -11
15 152 110 112 74 136 156 21 124 105 -106 103 166 152 96 -77 -75 150 169 -7 36 -3 87 132 -43 167 110 46 26 47 130 74 120 171 65 76 0 88 241 130 -120 43 102 267 20 5 122 156 78 -18 176 170 159 -4 127 87 48 14 93 115 -34 -111 -28 114 166 -120 -44 36 159 82 -48 42 161 127 49 72 36 102 59 -4 -47 -27 39 102 61 -55 -85 140 239 120 -72 -20 57 165 94 107 22 100 58 87 62 52 147 91 110 103 -7 24 117 162 -76 -115 -45 174 77 -54 -169 44 138 156 -72 -121 27 186 96 91 152 18 34 31 83 12 175 134 23 -147 -107 78 139 34 -16 -93 91 95 97 -112 -18 165 201 146 22 94 170 117 63 -15 32 84 93 38 -51 -72 135 126 19 -85 97 120 121 57 136 130 40 163 67 71 145 42 -3 87 25 -9 72 116 102 -186 -106 22 128 38 -93 60 185 251 122 1 175 99 185 139 66 48 -26 41 22 -124 -99 2 156 135 -199 -52 36 129 124 48 155 101 62 102 200 164 58 128 5 -57 68 86 151 214 -143 1 -20 121 82 -32 12 9 76 77 217 183 184 229 134 76 83 77 2 75 111 24 -3 102 147 -92 -210 -94 0 150 -130 -139 -6 6 41 154 66 94 178 88 164 58 95 94 88 28 36 136 151 158 -35 -137 -76 53 98 -220 -166 79 164 98 -33 12 90 80 181 197 125 139 121 160 11 46 37 18 -42 27 151 122 90 117 23 13 -30 59 225 -70 -80 -182 92 242 -102 -175 -100 25 186 122 70 188 -45 -117 219 285 137 89 78 213 153 34 206 224 -18 -122 -99 139 286 -17 -114 -67 26 217 89 120 224 55 -8 193 207 177 70 95 208 -39 -27 -33 163 -65 -132 -97 67 127 -75 -148 -103 6 109 -3 143 139 88 80 75 -11 -44 167 156 61 -190 -189 76 197 -181 -260 -177 78 266 -155 -78 -73 94 101 -99 156 88 114 136 92 163 97 72 16 199 147 -2 26 74 -1 -46 -139 -123 182 -86 -168 -84 -167 71 8 172 160 94 101 86 152 103 158 60 69 31 -120 -49 165 -30 -165 -226 -61 153 -48 -102 -148 -8 136 190 144 114 1 133 167 45 -38 -46 113 128 -35 -132 26 108 104 -79 -7 111 164 102 77 95 71 162 229 79 -2 -44 116 160 -96 -164 -38 38 64 -126 -250 -73 56 -46 -205 -201 -17 189 -108 -140 -56 173 236 144 127 22 -139 -59 91 -95 -162 -121 23 -21 -223 -254 -146 175 -49 -152 -219 168 163 -66 -114 10 184 135 187 -3 -82 -91 152 30 -86 -184 -155 41 -23 -114 -107 -23 155 -52 -64 40 73 148 -15 130 107 158 30 226 245 159 -18 -36 146 171 -151 -116 -74 155 64 -244 -132 10 82 -67 -156 48 100 137 -8 125 68 156 230 121 7 -151 -75 153 15 -157 -119 -43 46 -105 -267 -208 82 6 -101 -212 78 149 -22 5 30 197 166 -24 -111 -3 -85 -129 58 12 121 116 25 23 43 130 49 106 62 159 115 82 32 133 110 109 54 -96 -2 -28 -35 21 44 -23 4 59 -2 27 11 156 74 107 10 55 235 194 74 35 216 153 124 131 -90 -65 -97 -192 -100 -32 36 67 12 33 27 53 39 201 194 149 144 63 205 71 43 122 172 119 -11 -141 37 12 -3 81 -53 53 167 179 230 111 184 180 218 173 200 114 156 98 -17 -91 29 120 -29 -79 -67 14 18 -136 -97 -38 42 62 65 139 173 -47 46 88 154 119 53 155 157 130 63 32 94 19 -34 -112 -33 -105 -157 -41 -125 22 78 21 66 159 14 71 156 131 61 173 87 162 69 134 157 193 164 -21 -10 -130 -216 -123 95 146 18 -120 -38 68 154 114 54 31 70 21 200 202 112 -44 43 39 61 -21 -17 -8 -119 -223 -162 -10 81 -125 -107 87 194 134 14 62 100 92 114 159 231 20 -100 -51 154 151 -8 -27 -117 -179 -237 -158 0 143 -89 -50 111 164 194 113 124 168 55 7 157 115 48 -48 -5 118 16 -40 12 55 -168 -173 -31 63 120 40 101 61 36 31 252 196 57 -5 42 88 178 48 47 -116 30 -62 -44 -45 -27 -148 -239 -278 -72 169 -94 -55 87 134 95 83 200 43 61 14 208 102 97 42 -27 37 95 38 108 7 -177 -237 -153 60 147 -115 -133 -44 142 164 102 169 104 161 110 142 173 158 -17 12 159 89 71 19 -11 122 140 85 29 49 -2 155 199 238 230 139 166 181 166 172 77 -54 -74 -64 116 126 -109 -82 -149 79 -23 15 134 79 105 41 146 242 172 201 108 116 210 140 153 4 -37 39 -55 131 23 -174 -259 -102 -91 71 29 77 159 137 -13 65 163 118 138 -27 51 128 207 87 129 111 -10 -206 -174 115 -29 -308 -196 -184 125 140 193 142 30 27 134 188 83 224 24 -62 -124 9 73 124 -87 -219 -205 -81 -12 -119 -250 -198 -6 16 113 144 76 84 27 32 143 122 233 -25 68 135 139 196 153 40 65 -198 -191 180 57 -208 -236 -140 65 0 107 80 106 -96 46 59 156 141 -92 62 91 182 88 50 -48 -97 -116 -202 128 -68 -280 -302 -93 -57 2 -69 -43 18 117 37 5 -67 -59 61 133 55 -19 11 130 207 63 18 0 27 85 99 179 3 -6 8 -103 -60 8 -30 -27 -27 -155 -59 99 46 -47 -130 -68 179 134 88 93 7 34 209 196 77 86 -27 -57 -38 52 -50 23 82 90 -149 -99 89 166 34 -21 -84 38 87 194 102 212 -12 122 203 83 88 66 105 7 -110 2 154 105 -39 -66 -52 119 211 173 156 55 103 149 276 149 168 -51 19 104 70 -31 -56 -25 -12 7 -21 -45 -35 44 -47 -170 100 154 150 30 -22 126 75 218 171 156 109 142 144 195 143 -5 -48 -50 -102 1 -34 59 -30 -54 -205 104 114 7 86 -14 78 199 234 88 103 81 121 167 95 136 179 62 92 87 150 123 228 68 115 239 218 5 50 168 135 61 -90 -202 -45 146 113 9 -128 4 163 187 139 158 136 -34 219 169 133 183 133 239 137 22 78 212 60 -242 -243 -54 147 -47 -241 -154 20 74 116 142 131 214 86 66 123 227 123 62 150 51 -140 57 148 41 -255 -212 -89 55 10 -230 -136 6 50 116 85 203 138 139 120 48 -8 78 183 59 -118 -283 -30 120 -147 -273 -296 -104 50 -71 -70 -149 94 130 1 87 190 180 168 48 152 196 86 166 235 103 1 -136 34 204 -49 -250 -198 63 25 44 -156 -192 33 89 167 184 96 87 57 92 131 147 161 183 127 -176 -105 156 188 -101 -293 -125 169 -1 -101 -133 -161 30 75 2 -41 101 131 130 161 148 143 177 5 104 68 146 150 -18 31 61 100 12 -25 -65 -143 -117 -14 0 16 60 68 38 68 141 141 165 182 119 67 253 274 215 -12 -19 74 116 109 -131 -81 -128 -115 12 66 9 64 18 163 100 183 123 182 234 102 167 108 191 147 25 -123 -70 0 -91 -137 -56 -182 -42 -63 102 104 30 103 135 -4 203 168 197 120 23 -17 89 140 155 -111 -192 -173 -148 -53 -78 -84 -50 -153 -66 54 18 64 65 120 68 151 151 124 161 143 57 121 195 183 8 -79 -11 -42 -50 -38 -161 -154 -68 -101 -18 -28 23 78 99 171 158 101 223 240 5 119 38 226 210 -133 -166 -29 95 -20 -23 -104 -127 -100 -112 -14 -25 105 -26 -2 -11 121 0 -11 31 120 157 41 -4 88 77 -20 -17 54 14 -27 4 18 -32 49 94 14 -43 -63 -15 125 51 23 120 84 41 34 81 97 132 167 101 100 139 108 118 -34 90 111 131 66 -15 57 162 95 41 143 153 173 95 96 142 48 58 91 88 77 49 54 170 10 -58 4 141 132 29 115 192 86 74 84 135 133 139 29 43 34 87 35 124 -103 11 23 28 169 -85 -124 -5 -32 37 -5 -21 108 56 -25 45 142 162 12 30 141 133 101 92 -14 95 22 -38 86 23 10 -126 -143 -34 -11 28 33 132 16 117 140 115 163 113 10 157 105 136 85 141 73 19 98 93 153 -50 -26 10 97 49 111 125 -120 -134 -120 166 146 -48 -74 -154 82 51 96 -8 101 134 200 195 162 82 154 101 106 30 5 26 16 -132 -136 -17 109 96 -145 -119 -123 43 132 55 -35 62 125 204 273 158 85 75 196 106 38 0 61 78 15 -158 -192 92 122 3 -79 -164 -15 127 90 50 106 166 160 119 230 200 164 36 129 151 33 122 129 -152 -171 -126 -20 140 -20 79 6 89 163 198 126 78 182 113 154 175 210 71 166 185 75 -35 164 155 46 -197 -193 82 78 -36 -158 -127 -62 153 67 50 112 44 163 179 198 216 146 188 75 102 15 195 166 103 -208 -63 100 118 44 -212 -174 -13 112 153 22 76 105 66 169 140 149 17 164 173 187 11 33 110 -41 -51 -89 137 157 -12 -76 -174 115 64 93 -6 -70 130 129 104 108 141 -46 112 109 94 95 89 103 3 -176 -137 125 38 84 -187 -127 186 119 69 11 11 93 153 207 157 25 114 119 92 187 121 50 96 100 -78 -155 105 104 44 38 -119 185 76 128 -11 -40 160 143 162 52 161 36 54 51 93 227 60 192 73 -182 -197 200 228 73 -39 -108 155 142 201 49 199 -83 50 220 136 268 -137 58 80 97 204 4 114 118 36 -90 82 200 26 7 -97 109 153 103 106 -57 -55 18 36 47 65 -139 51 46 61 199 -17 29 13 -77 -91 54 202 136 -4 -148 134 131 181 158 -83 63 44 133 129 77 -91 -58 106 140 227 -48 48 150 162 154 -86 77 174 82 137 -4 105 166 133 205 104 158 187 166 -22 90 179 95 59 -64 31 66 16 146 -28 -112 -13 196 157 69 -142 -9 167 235 174 -75 146 199 124 -60 116 46 49 -103 -127 -56 -91 -6 100 4 -147 -11 34 137 140 12 61 191 67 63 142 132 67 62 -8 95 118 -16 -180 -147 -75 26 35 96 57 -79 -3 31 131 87 42 179 87 24 25 212 212 34 -117 -65 88 0 -89 -82 -51 129 -94 -19 7 51 43 -157 114 132 194 44 -33 61 119 151 217 100 196 108 52 56 51 149 78 -129 -73 -62 95 109 87 -142 -228 29 197 69 -140 -41 73 194 161 118 189 122 37 -61 50 124 105 34 -59 44 57 18 54 36 64 62 174 115 58 63 136 188 210 183 -9 70 76 84 -24 -5 16 -30 47 -119 -28 91 50 110 -42 26 89 193 230 18 52 41 139 259 200 -57 111 188 163 114 -58 -13 125 7 -47 46 35 129 83 112 76 62 165 135 144 54 60 195 147 190 -92 28 62 -11 -30 24 80 20 -107 11 131 157 152 72 32 -7 72 88 113 151 -73 27 23 95 -13 -144 -108 -122 -157 -24 4 67 36 -24 -92 -1 137 72 35 51 25 157 54 117 94 -69 -15 48 54 111 -169 -152 38 43 -24 -118 -69 83 -43 -94 10 -12 19 125 118 130 132 208 192 170 -113 33 83 94 162 -114 -114 -5 110 -71 -91 -7 79 -14 -163 85 105 0 -130 -30 104 119 28 -100 67 125 98 125 111 98 70 62 74 85 127 161 174 126 171 116 -36 -37 -114 -162 -24 -93 31 -126 -152 -64 -54 110 9 13 23 143 213 214 139 88 197 102 149 118 28 35 -31 -181 -132 -205 -72 -111 -211 -182 -49 -10 107 59 89 20 47 161 124 132 175 140 185 184 131 141 78 -109 -218 -85 -128 -108 23 -59 -45 -46 128 170 171 169 151 217 175 127 256 60 118 75 15 82 -1 188 21 -27 -86 -173 -53 -163 -8 -109 -71 -104 -50 11 13 35 92 180 180 200 66 161 60 174 170 167 -13 17 -83 -140 -101 -115 -5 -139 -60 -107 -166 69 112 -1 61 25 89 163 213 130 174 120 124 169 173
-35 -10 78 24 -76 52 19 -43 73 79 -31 -37 -63 -69 74 19
-47 -6 34 3 -38 17 -33 40 -1 44 -44 33 45 36 29 -27 31 39 -30 49 -50 29 -28 -39 -33 -4 -22 -8 -14 -19 44 -18 27 -35 -7 -48 42 40 -33 23 30 -13 33 -1 35 -26 -18 -11 -27 46 20 -28 -26 37 -19 6 -37 -36 47 -20 -32 -2 -43 9 -30 13 -39 -23 0 -34 -41 21 -49 -38 44 -26 46 5 14 49 -19 -29 -4 -32 19 23 3 -18 4 38 -12 17 39 14 -29 43 17 25 -19 -8 -27 30 -27 -48 10 -23 -7 -5 8 -26 -37 -23 -35 -17 -8 -37 26 -17 -45 -34 -6 37 32 13 5 -37 -45 16 4 -20 -48 37 -17 0 -27 -24 4 -48 48 21 -46 25 -33 -45 -38 -5 38 23 -47 31 -1 6 -31 -17 16 27 45 -41 20 19 13 -27 20 -40 2 46 -37 -37 2 -41 -39 7 44 -27 26 39 -45 -17 -20 31 -50 -7 -16 2 7 -27 23 4 48 32 -21 10 -2 34 -46 -21 2 21 24 -44 -19 28 -38 11 -31 -28 29 -10 -47 22 -14 -29 -2 -16 -17 -30 46 0 -25 -7 -41 -37 -46 -1 22 -7 12 46 -30 45 5 -9 15 -32 -27 30 16 -38 -5 4 -20 4 25 -49 -14 -4 48 38 -31 35 -15 41 -14 -11 45 -30 -37 -32 -29 8 13 26 -44 27 47 27 -20 -25 -11 -37 -30 35 -42 -45 -38 -13 6 -16 -37 -30 43 9 23 -12 -31 21 7 -40 4 -31 -28 -46 -30 -36 -28 -25 -44 47 9 45 1 -42 34 36 23 46 -39 -42 12 12 -32 -15 -43 -43 -21 29 18 -2 35 -8 -16 38 -48 -2 33 -24 -20 -19 -35 4 33 -43 -27 1 -49 1 -26 24 -2 -5 13 -6 33 46 -19 0 -3 27 31 -9 25 -12 42 -2 27 -25 -28 -29 14 -17 -23 31 29 -21 12 0 -41 33 -39 -9 18 -25 -44 -20 9 -47 26 -49 -40 31 -40 -31 42 -43 -16 43 35 44 40 -4 34 -8 -37 35 17 -30 26 20 -4 3 28 5 11 -55 -109 -28 -25 14 -33 -92 -34 -27 -6 -42 -11 -102 -30 -41 -47 -1 31 -46 48 10 15 60 1 15 -43 -63 -13 -43 57 -35 -85 -85 60 33 -94 49 1 29 24 19 183 45 -16 -23 30 85 27 47 57 -63 -90 -51 94 27 43 -15 -57 39 -105 91 9 -8 -36 -29 -57 -70 8 34 27 -31 9 46 35 -18 35 13 -41 70 -9 67 76 6 114 -13 126 20 41 78 -35 164 -66 28 52 180 -68 -78 77 -15 -31 -10 -56 -40 -88 20 -24 -71 -43 -17 56 -1 -31 13 65 33 41 22 -43 -59 17 68 145 34 -4 61 19 -22 -53 -48 -77 -65 -93 -94 -36 48 -78 -116 12 38 36 49 147 -8 38 1 40 226 91 87 -81 -55 22 102 122 14 51 -77 -29 -47 63 12 -49 -67 44 3 -112 -26 17 78 53 39 0 50 -24 50 -28 -39 -23 -60 -51 35 -20 -20 -14 35 -49 -63 -21 -55 110 10 78 -1 -82 -51 -1 89 37 80 64 -19 11 60 96 -6 67 -22 -32 69 -101 43 -84 -24 -21 -61 -28 -93 -70 48 77 31 51 104 59 58 -39 -124 49 0 33 -65 -53 -44 -22 -11 -59 -26 -47 34 -8 -55 -109 29 -20 35 71 28 32 13 65 -49 -24 -7 -38 1 27 -55 -42 -25 -71 -38 -93 -39 20 -1 -47 -46 -56 0 50 31 84 62 26 13 41 -101 -72 -24 -5 38 -14 -23 20 17 -47 -91 18 -26 39 41 -26 -1 -62 41 -18 -3 -33 6 72 30 -99 -79 -55 -23 41 -40 -38 -40 -50 -53 -26 -55 20 98 42 -59 -29 -28 7 49 90 108 42 54 26 -87 17 -35 12 -56 -58 -33 -18 91 -52 -33 -100 32 25 -4 69 -36 44 39 -2 100 108 52 32 46 -88 36 43 99 -3 -51 -97 -17 6 -47 40 -17 51 -45 -27 -97 24 10 68 16 44 16 -56 -23 -11 -68 -21 20 -35 28 -91 14 52 -18 -41 -51 -11 -24 -13 18 83 15 -33 -18 111 75 5 56 28 -55 122 35 26 40 -114 82 -46 18 -2 -61 67 -37 -16 -62 -21 63 -14 36 12 22 121 0 73 -20 13 47 -12 47 -12 -37 109 -8 73 22 14 115 -11 104 10 60 132 36 -2 -49 -11 132 71 63 -107 -15 223 -8 86 -62 -19 96 -15 3 24 -5 -22 74 -13 -44 -14 -27 23 23 87 57 18 39 108 136 159 77 5 75 85 72 16 43 155 26 125 -51 61 108 14 76 1 14 -30 170 32 19 13 -3 -20 -8 -68 -40 -4 -9 -11 -54 -83 14 66 20 56 7 68 15 70 90 4 -23 -33 5 21 27 -4 25 -50 -52 37 36 20 44 -1 51 46 17 36 135 17 28 24 91 82 46 61 33 -19 77 126 34 162 93 -23 88 30 45 35 -15 -12 -7 38 2 20 -11 -36 -17 -39 17 26 52 10 21 60 -63 -40 54 -22 -64 23 4 39 -38 -28 23 26 63 -29 17 15 70 23 73 34 -101 -13 2 -21 40 103 39 91 109 14 43 80 -22 1 3 57 9 15 48 -50 55 -48 -36 49 -3 46 58 83 -3 52 80 34 -1 25 124 64 36 -48 -14 -20 -41 29 -46 -38 44 -12 22 -15 69 58 44 103 23 55 26 -4 28 7 3 45 -48 12 -55 16 -7 -49 34 -46 -59 -55 4 69 28 32 11 49 74 54 30 67 -6 28 -18 -71 -95 -22 -41 39 -55 -64 -20 -26 75 55 -32 -3 39 97 50 50 -50 -55 -30 45 15 -42 -31 17 9 -13 -66 15 46 -25 -62 54 49 71 18 -16 15 38 79 -22 67 -34 -25 3 -11 5 60 41 46 -45 22 -13 52 72 -13 89 20 5 -6 -92 65 -63 73 29 -12 88 44 47 -68 -35 37 109 75 42 -3 2 20 25 30 -51 11 -31 5 -17 -9 32 -29 63 15 -59 78 104 109 106 77 78 -20 51 -4 -58 -47 37 60 56 -1 12 59 73 25 72 84 74 68 77 -3 21 13 -59 -24 26 11 -53 -7 23 49 -9 -14 22 12 65 46 33 5 -56 -22 -11 -13 -18 -9 71 53 38 69 8 56 20 0 -23 -45 -8 -95 40 60 0 -3 78 43 28 0 16 -5 2 71 -6 54 134 -20 -46 28 -13 79 12 46 36 74 -44 58 60 26 47 35 25 -29 2 -25 -4 -13 6 50 59 27 65 -10 71 68 33 9 -46 -114 -76 -73 88 -17 16 44 -6 -43 -62 -38 -24 -29 29 -7 -45 48 13 -45 -87 -68 -106 14 -15 31 30 -31 36 -6 3 13 19 -23 -3 87 44 50 -7 28 80 -25 0 120 58 -5 57 21 132 -13 8 4 -35 -37 -25 65 54 -32 -65 18 17 -3 70 18 -6 16 -11 -3 70 62 22 -32 -47 58 -2 -5 73 6 -63 -21 -31 -34 95 69 17 16 -41 -21 -17 -71 20 28 -29 -56 95 44 22 2 -1 -97 -48 -49 27 6 -55 61 16 -18 -56 -26 12 14 30 -9 104 0 -16 30 70 65 30 -44 -19 56 -5 -2 65 55 -97 -41 12 -6 5 20 -38 -22 -62 11 -41 -5 60 75 29 0 36 27 46 18 60 -29 -21 46 35 13 -4 37 -53 -41 -26 -29 62 27 8 -11 -36 66 -28 4 35 57 24 62 93 110 -17 48 66 36 36 -28 20 25 -3 2 -28 62 -22 -26 9 49 86 35 -12 51 89 50 -4 -14 40 -16 -68 -49 -55 30 -72 5 42 -42 54 58 28 64 -29 -13 79 -53 34 69 89 30 51 -30 39 30 -34 -81 25 23 82 22 85 -3 -42 -10 59 32 38 17 -18 53 53 53 83 37 76 65 -38 47 58 -73 74 20 22 36 -69 34 60 6 -37 -34 73 -9 -22 4 63 16 -47 -14 124 -9 8 9 10 49 -4 98 109 46 101 -37 26 -23 -20 47 -27 12 -54 -64 -31 -20 54 0 41 10 52 75 34 98 94 -27 -48 -19 -41 -37 60 59 -14 30 -6 21 40 78 0 26 34 4 26 23 126 1 55 45 35 52 6 46 -6 25 131 0 36 -27 49 59 54 14 -17 96 5 32 75 59 18 3 -13 -36 -47 -14 -63 -35 2 29 68 151 44 -2 3 70 69 85 47 6 32 36 22 -4 27 0 -43 -40 -34 77 29 -104 46 -30 -1 4 33 -6 -72 -10 27 72 -3 19 26 -8 16 85 58 -21 -37 7 -5 -13 -63 -6 -10 45 -45 113 200 142 101 72 23 91 62 57 -20 100 -51 14 -50 50 93 -11 42 -35 10 48 -20 112 -23 8 -80 50 37 -5 69 14 30 34 65 41 -71 38 -16 -48 11 -41 3 -57 27 71 74 10 -51 -19 -36 -13 -45 74 -12 3 47 63 72 12 88 -46 -13 28 48 -16 -46 40 -13 -11 -55 76 37 -139 -111 -115 68 14 25 -99 -44 43 -15 -6 64 53 31 7 72 31 14 -9 -3 28 35 -21 0 -4 5 39 -16 -20 -19 64 35 122 74 -60 -7 61 8 11 -21 27 -52 17 -28 -38 -47 -78 -4 62 8 13 52 58 65 39 28 -10 -82 -55 -7 95 33 49 78 39 -19 51 12 -38 11 15 1 70 40 40 -33 -38 -36 -27 7 -15 9 -21 -10 52 100 95 33 69 18 15 14 24 -13 2 -62 15 36 -19 -7 20 -37 -86 -34 -28 103 77 26 41 51 80 19 56 68 -44 38 -10 22 -17 -40 -51 -3 18 -16 54 10 -8 8 -5 40 91 85 105 3 -18 28 -8 57 -29 40 7 -8 26 67 -28 1 -14 3 51 54 33 14 -57 -25 -39 40 69 20 -6 -24 41 -49 85 10 2 34 45 88 -39 -12 -32 -29 36 56 44 -40 6 -9 -15 53 71 -28 22 68 41 101 43 9 24 11 82 -8 -21 -37 89 7 -36 -50 53 38 -80 7 -11 2 -5 -26 -84 21 -30 -4 69 9 70 52 27 83 8 29 2 10 8 45 -2 -6 -4 -54 49 -17 -11 27 86 26 20 13 -7 62 10 8 6 -22 54 -61 -16 30 -17 -37 -74 -16 24 -81 24 -32 -6 34 22 22 -34 -16 9 17 -32 17 -5 -38 35 6 38 -24 16 -14 41 30 -11 -12 -27 44 -1 -50 14 -53 -34 -4 37 -6 32 47 -18 -48 12 -1 17 23 -11 37 -26 37 -43 -40 8 34 15 47 12 -9 -6 46 -41 -28 -2 -29 -1 41 38 30 37 -20 40 -20 11 12 -34 -22 7 16 10 4 41 -30 -29 -27 -39 6 21 -8 -23 -4 -16 29 11 1 -40 45 -45 5 -40 7 -4 23 17 -26 33 -6 -10 -30 8 24 6 -38 7 32 -19 42 -12 -10 39 -29 0 -33 -37 -14 -42 21 -44 13 10 -16 -42 -33 -53 1 13 41 -34 -20 1 -46 -39 10 18 -13 -7 28 -53 -30 31 25 44 37 -8 -10 1 5 32 21 17 -17 2 43 -6 2 -13 33 7 40 11 -13 34 -33 25 -42 -10 27 -19 -43 46 25 43 -32 -12 -43 27 36 43 -50 5 -47 48 -45 5 -12 17 18 -22 44 22 14 -37 -27 33 6 42 -2 -5 8 27 -47 -32 -35 -39 -44 -7 -9 -52 -8 -4 6 -49 -48 -28 5 -37 43 -47 31 -21 3 -40 -32 5 -5 -14 28 -35 15 41 42 -19 8 -25 24 -43 -5 -18 -21 -10 -34 16 40 19 -39 1 -33 43 -16 40 49 -45 -31 37 -25 -43 -11 42 0 48 11 -49 -2 7 -13 35 35 6 -49 40 -43 -13 29 -43 10 -16 2 12 23 -35 4 41 -45 -26 -10 -7 0 32 14 -2 -40 32 -34 1 25 48 -47 -20 -35 -5 24 -3 16 -48 -48 26 36 -23 -44 0 41 43 29 -46 10 39 -24 -32 -34 -15 19 -25 -25 1 -40 -42 -8 -50 37 -17 -35 36 9 -37 -29 -3 -44 -50 33 -4 -25 11 2 -35 -49 34 -29 29 -38 -39 -53 25 -6 -1 40 11 -8 -30 -8 45 30 -5 -19 -45 -38 26 -45 23 -7 43 -52 -25 -27 -32 33 -22 5 29 1 32 -6 12 1 -19 26 -1 -28 42 -33 51 -41 -16 -13 -34 -31 39 5 -47 -16 7 10 -12 -18 27 2 -46 34 -50 43 -57 3 -20 -40 22 -25 12 -32 -11 -33 -2 -34 -28 19 8 -50 25 -20 2 4 33 9 -11 24 -11 12 8 39 24 -11 -26 -6 1 0 -10 29 -17 -22 35 -19 -33 -43 -32 -47 -6 6 15 20 38 19 -33 1 -6 36 -10 -43 -54 -22 33 -9 -23 1 -23 -12 32 -23 -15 -12 20 -29 44 -14 19 -29 -59 -35 -35 -20 -20 37 37 40 19 -37 27 16 -5 34 22 16 -20 -6 -40 -49 -15 -51 -16 -54 -49 -29 -33 -5 -19 19 -21 -11 -11 -38 39 -54 -20 -47 -42 -4 -18 23 -34 32 37 14 22 -34 38 21 -36 14 -9 18 -57 20 21 -26 30 42 -2 14 -51 -20 -28 35 -37 37 -45 -21 23 26 -9 2 -1 30 -23 -49 -47 -24 -36 -13 34 20 -38 18 -33 1 -43 -6 -40 -31 -38 -34 -43 -9 14 -52 -4 -12 -41 29 -52 -33 8 4 -8 -12 -26 34 -4 39 -12 -51 -23 -25 10 -8 -1 -48 -51 33 13 23 -26 -13 8 19 -33 -12 -32 -19 -53 10 -8 -40 -14 -43 -25 23 -53 -40 -41 1 0 -28 25 -50 -12 -54 -41 41 35 0 30 -54 3 2 -11 -20 36 24 18 38 42 -20 -15 -55 -19 -57 -15 -8 -41 -24 -35 34 -27 -7 -49 -8 38 -25 22 -2 -20 6 24 14 25 26 19 3 12 38 1 -43 -1 -17 -4 39 -14 -14 17 42 5 11 -24 -20 -10 31 -48 -48 -47 -56 -22 -52 12 35 33 -23 -48 -17 -50 38 8 -47 -23 -21 -12 15 38 -5 15 -9 -10 18 -23 28 -33 23 -55 5 31 -38 -8 -4 -47 22 29 33 -42 -33 -7 8 -36 -40 -20 -48 7 -19 -3 -20 -44 7 19 2 -8 32 -17 41 23 24 -44 -7 34 34 -1 -36 15 0 -31 5 37 -49 9 -23 -3 -27 -33 24 -24 21 -23 -53 25 19 20 43 -12 30 -25 4 20 40 34 -29 -32 -40 -1 -22 -19 -29 42 -30 -45 46 -11 -72 -7 24 25 17 -7 -6 32 3 -18 49 39 -9 17 30 17 -22 -3 -50 30 75 -46 -71 23 -27 -15 -38 -42 70 -67 -39 6 -26 -6 -31 83 48 -32 -28 7 76 -3 -61 -43 -12 47 -54 92 46 -22 -130 -76 26 -78 7 9 -72 -14 -50 64 -3 -27 -17 60 -23 -31 33 26 -11 28 27 -44 -87 15 19 -32 -8 80 12 65 80 63 -11 -95 130 49 -22 52 35 91 -68 4 48 68 6 -54 -60 -71 -29 48 -25 -137 -87 -22 11 -25 94 83 26 -63 32 35 -4 -47 -2 21 -15 -12 -24 -41 -7 -9 -42 -78 -18 -41 -104 -20 -54 3 -69 -56 5 102 9 -11 78 49 -35 58 115 13 -42 -46 -22 80 188 137 -55 -82 -44 -18 -20 55 -2 -28 -33 -7 34 -42 32 -5 0 -36 9 -19 23 10 5 -1 34 -70 -94 -5 40 -73 -38 6 -55 -32 29 61 25 65 -6 7 65 64 64 8 17 8 -20 -107 -63 27 57 113 153 -67 -21 -32 39 -48 4 -18 -29 -75 -5 58 -33 36 35 -16 45 26 -18 36 34 5 -9 80 21 90 -40 -62 -30 -26 -20 -42 24 -51 -20 -3 -45 -32 80 36 12 39 -14 60 -4 -38 41 67 -23 16 77 36 3 -58 -89 -21 -6 -59 -50 -32 9 17 -56 57 52 21 27 50 1 -16 -26 -24 52 -99 -122 -13 37 -31 -2 -22 -58 -24 -26 124 53 -12 33 57 -10 -27 64 9 -39 2 21 -22 -16 -32 -130 -22 55 42 -36 8 -82 -10 24 -23 101 20 -3 30 21 -12 17 26 24 33 13 -32 -25 -46 -21 14 -37 22 4 -65 -104 -58 17 -60 -18 -13 -32 77 -17 16 26 -19 -28 6 105 36 -2 -20 -26 -28 56 8 44 78 -43 -58 -18 -10 39 -12 -12 -49 -72 -61 35 18 2 -19 -4 22 49 -1 21 17 18 -56 -80 -57 -62 3 -4 -8 24 -13 -2 139 71 23 -25 34 43 14 11 -18 -1 -21 -96 -36 -38 -58 -5 -47 -11 -104 -81 4 -7 -24 -24 -30 34 3 42 34 38 1 1 -8 29 65 14 -48 -47 -49 44 -18 26 32 46 35 -7 -26 -29 -20 -28 0 66 -29 41 22 -17 -71 26 -60 7 -48 -1 -46 -14 142 -22 9 -127 -111 -50 41 43 29 -77 -15 -52 15 49 46 43 -2 50 62 23 7 -10 -19 -46 -24 -28 -35 96 21 -80 74 80 78 -60 -35 45 69 19 72 115 77 -22 -16 4 113 -27 99 243 93 168 -41 -55 -64 -52 13 -19 36 51 63 33 21 29 20 29 28 -31 -30 -38 -54 -8 19 -46 -58 -58 -61 -19 8 0 -26 53 11 -14 12 69 70 17 7 -7 29 -17 57 18 -20 -60 16 10 -30 -63 -68 -26 29 116 -83 -127 -27 47 14 17 -22 19 -29 -9 42 24 35 -42 37 10 83 83 63 -48 -12 -61 -12 -2 -12 34 37 -15 -39 55 -10 19 52 -29 -6 -24 7 34 13 4 -39 -40 0 -54 81 -90 -56 -42 -65 -57 -65 -146 -66 -38 16 -19 18 1 -5 -8 -8 17 -10 -34 62 11 24 109 4 7 -74 -60 -49 8 -51 -127 -55 -120 -83 9 50 6 12 -63 43 61 54 40 -9 10 -2 8 65 28 -54 -87 -64 -69 11 28 -18 -37 -62 -42 44 4 -13 -40 0 31 -17 36 26 -6 8 -33 -11 -14 55 -39 -80 -24 -62 -8 -22 23 5 -21 -33 3 43 62 47 -36 49 50 44 -7 17 -51 -66 0 -57 -27 71 -34 -26 -83 -31 40 -23 45 -74 -15 32 -41 44 -15 -9 49 -2 69 47 35 -51 4 12 -38 38 67 -77 -37 -41 -100 -61 -49 -5 -2 4 7 35 36 35 -53 57 73 23 31 31 -8 -12 12 -1 -15 -15 18 -71 -5 5 -40 -111 -99 -141 -31 -43 -12 45 -21 -55 28 -25 -5 38 3 77 39 52 2 77 -85 -4 -93 -20 26 -52 29 67 65 18 41 -4 3 -27 -25 69 9 -23 68 51 -20 -76 -111 -109 -74 111 -11 10 -66 15 61 68 -37 12 43 35 6 -39 32 8 4 17 6 38 -41 19 11 58 36 -8 0 58 2 -28 -55 -55 50 10 11 9 65 72 42 56 54 83 8 -57 18 -3 -50 -4 -19 -11 -27 -39 -14 71 28 -79 37 2 -58 6 132 -11 -50 -87 21 -33 32 42 77 -21 38 89 76 37 12 -41 -32 2 -42 42 -5 41 67 -25 75 69 1 3 65 132 -13 -34 -90 -1 -6 -50 -14 -14 17 40 55 25 -28 -8 -12 57 -95 18 16 5 -14 99 72 4 -4 72 15 29 57 19 -9 -96 -65 -5 4 -48 -98 -44 68 44 -9 -16 36 -55 27 -16 48 61 5 -32 59 51 28 -24 26 22 -65 -72 20 39 -42 8 -50 64 29 -27 -57 -68 113 115 10 -153 -46 -43 -36 -58 59 76 3 -34 72 34 47 55 51 63 22 7 12 -38 -75 -74 -28 -45 10 -50 61 100 100 -15 12 24 39 37 -10 1 -107 9 16 -36 -24 -114 -37 -23 98 16 -28 -48 5 103 45 -107 12 17 12 -34 20 2 31 8 23 65 -32 55 -29 3 -48 -36 44 14 -46 -36 5 -21 28 58 10 -27 -57 -94 -94 59 8 22 23 -2 -25 28 23 40 -18 -59 -13 58 7 -32 -38 22 22 3 -25 13 18 39 -41 -28 66 88 67 -22 -22 13 -36 6 43 -5 -13 18 0 -17 -1 -66 33 -10 -56 -61 23 85 36 -8 38 -78 22 37 1 16 -80 -27 8 10 6 -63 -62 -26 78 -8 -22 -43 -77 -31 -2 20 12 30 -24 52 -11 80 11 7 -35 -68 68 -28 32 -18 -149 -53 4 70 -5 -56 51 23 -30 -64 -16 34 6 -13 108 6 68 49 46 21 -12 -57 13 18 -51 -59 49 -1 -16 35 -29 1 51 37 -52 -67 -23 -71 -20 -49 81 63 23 -8 95 -27 -22 -5 53 12 15 40 12 -14 -68 -23 -19 -34 -9 -62 17 89 -13 54 52 -50 -49 -2 -13 -49 -98 29 21 -9 -14 -56 -39 -33 -16 39 88 22 -5 119 71 37 6 -24 48 -47 92 37 73 69 26 -27 16 -7 57 54 27 37 -47 -41 -4 55 28 -35 61 42 103 -43 -16 70 34 22 8 52 117 -40 -63 -46 -22 -43 -141 2 5 47 61 -103 79 -108 46 17 -1 10 -32 16 26 -5 52 57 45 17 35 31 39 -53 -10 33 2 -35 20 40 0 49 -10 -5 71 -103 -8 -61 44 -53 35 29 -24 118 -123 55 -3 8 -48 -134 11 58 77 -76 -3 70 130 0 -41 21 65 120 37 6 75 82 82 -26 -38 66 -10 -72 -76 4 -43 -37 -13 -53 41 45 -18 53 72 -10 31 25 69 -35 -1 28 41 33 -20 -56 48 -15 23 -21 19 -37 -90 -61 -47 22 -48 -182 -60 -120 -105 -71 60 10 -24 -66 -71 80 75 -15 -59 42 5 37 14 66 -3 71 -41 -82 -59 -9 -54 132 60 56 70 98 97 62 -2 54 35 26 40 -54 89 73 -111 -65 -111 -40 -77 -23 57 76 18 -92 23 -64 -10 -46 27 44 -6 96 -92 95 27 14 44 -42 18 69 53 28 22 48 7 -68 13 -1 33 54 -73 -94 10 -16 44 24 12 82 39 41 4 33 -2 65 47 -37 25 -4 36 -9 -19 -66 10 -7 16 39 -44 -31 41 52 44 26 -10 105 44 18 -15 53 23 -35 -83 16 -8 11 4 17 -40 16 -60 119 93 3 -24 82 64 67 -21 -43 62 41 -15 -30 -2 97 -99 6 -104 -10 -15 -51 36 -20 -13 38 112 68 3 -26 54 37 73 47 33 68 8 98 -51 7 50 -18 -2 -32 60 24 48 -4 -2 39 -10 19 7 -56 84 27 98 47 -39 96 -4 29 -46 -53 124 8 10 -57 -26 22 -114 -40 -55 33 23 -91 4 -8 -96 -60 51 52 56 -65 82 14 111 -12 68 53 31 47 7 40 44 10 -57 -8 -68 -6 -24 60 36 4 105 68 60 -34 51 52 -31 -52 -16 11 72 37 -90 -66 -88 -51 -131 43 -36 4 -33 -1 -31 73 -21 45 54 55 33 -32 23 113 29 17 -28 20 34 60 52 -26 -13 -25 85 32 -29 31 69 -54 38 -15 -48 -76 -2 -3 1 15 82 31 52 -69 47 24 102 68 5 48 29 12 13 -22 -11 -100 -23 -22 -22 21 145 35 -39 24 32 26 63 -53 -35 -52 29 48 32 10 -22 -1 87 100 19 9 57 -17 30 -75 -44 -15 122 -42 52 -68 -26 -9 -185 -40 -179 -44 16 -103 -34 -119 -62 -69 -264 -252 -60 -51 -95 1 57 -12 -26 27 21 -17 7 36 17 35 -1 -6 61 52 63 59 87 82 -22 54 80 -25 -19 -4 -6 -34 -60 -40 45 -21 55 -15 -5 63 14 -59 56 49 7 30 -46 -20 -25 74 36 67 82 -85 -158 -89 182 63 -65 -114 -47 1 31 0 -58 -12 1 -25 63 -36 -10 -6 21 52 108 78 15 -10 17 -99 4 6 -58 -4 -7 67 -17 -49 -12 -25 29 43 -41 23 42 131 74 -16 71 -124 28 48 51 -4 11 -55 19 -50 14 -41 -84 9 13 -54 23 -7 58 6 -46 -11 13 69 -5 55 68 57 -3 -4 -36 -67 5 102 45 45 -52 -1 -20 -64 -24 39 68 -48 -41 -30 33 -13 13 34 1 14 39 25 -17 -7 -29 41 10 92 100 47 11 8 -28 -19 47 69 55 -27 23 93 98 68 25 32 15 27 81 26 54 -51 -39 -69 -35 -29 -19 89 -15 -67 80 15 72 52 -79 -13 -22 88 80 49 48 -137 103 86 -26 54 -22 -7 -22 68 128 -1 45 -11 -31 37 16 -3 28 -66 -11 -4 57 24 -48 9 -74 38 47 -13 49 -119 8 -7 -70 -16 -74 43 -35 -21 48 40 125 -68 -11 68 4 61 -36 74 45 72 64 -32 38 -39 -60 94 33 30 63 -31 2 -74 20 87 -20 33 -23 10 -14 -24 24 -35 -11 -41 20 20 18 41 55 -15 -11 -56 -80 11 3 33 28 1 96 59 18 28 -34 58 21 46 85 54 -6 -143 77 66 -39 -65 5 72 -76 9 98 -5 57 48 -36 3 -26 16 35 10 17 -35 -15 -12 75 -6 55 6 -29 28 -29 28 -21 23 14 93 -18 41 31 34 -6 -6 28 -47 -65 -2 25 73 -25 23 15 -44 -14 -13 82 60 49 -2 3 46 -40 0 91 -56 -94 119 21 91 19 -11 -41 -19 7 -12 56 -28 14 -13 17 48 -11 1 30 45 177 1 -18 104 -54 -8 -7 4 -42 -77 49 45 41 10 12 2 -46 -34 -37 -77 -35 1 14 0 24 -31 60 -18 29 99 14 15 -17 46 26 44 -52 75 13 -43 12 46 65 -52 -13 -5 58 -27 -45 -20 -63 49 38 19 20 29 -13 61 58 31 -18 13 36 70 -33 -41 50 -8 13 5 -12 -13 42 -182 -95 46 13 40 -105 -41 74 85 6 51 29 -44 -28 -1 -3 13 4 21 109 3 33 58 -19 -17 -1 -37 25 23 -29 54 75 -20 -50 -32 0 42 73 -11 131 39 18 -7 60 -41 0 -4 35 59 77 86 57 6 22 68 10 -72 44 97 -46 63 99 -3 -34 5 28 33 -53 -80 47 65 38 18 10 -35 -20 -81 -46 62 -25 31 6 -48 47 -23 24 74 50 21 -12 -38 11 34 -60 56 0 20 12 32 9 -12 -28 -44 79 -22 35 30 -37 47 -8 66 69 -16 -62 -9 48 23 -29 30 50 -19 8 33 72 -16 -31 38 -12 21 -28 87 84 -52 -63 51 -14 55 4 -36 79 7 42 40 40 -9 19 -66 -23 8 31 66 -30 18 68 31 66 30 -47 5 -9 -36 86 25 -16 78 -73 -28 -25 -26 19 -6 18 -30 74 -19 -47 -29 -8 46 -50 -19 29 73 40 -10 100 1 31 -14 46 72 -7 0 -8 52 12 -55 27 -30 12 -38 -62 -53 112 -52 12 -6 6 59 23 43 82 -64 -9 12 32 -28 -14 -3 104 -8 -19 19 63 -52 -31 -19 56 27 14 68 138 53 -41 37 -41 11 -42 -47 100 -29 16 21 22 -90 -23 -74 -58 -60 -53 -15 -25 -14 17 -17 -34 -23 -6 38 32 33 -38 -41 -43 42 23 -8 47 33 46 17 -39 38 -20 -47 29 -3 17 13 2 33 -45 -10 -23 2 43 -38 -12 -29 19 -17 29 -10 14 -31 9 -19 48 -52 -46 9 14 29 -42 42 -18 6 23 27 12 4 22 35 -51 3 -48 -19 -38 26 31 -34 10 -52 -35 -41 20 4 23 42 -13 14 -13 27 -48 36 -51 10 -28 43 8 -39 -2 -43 -24 13 37 40 -21 -7 42 7 -41 -50 -42 41 41 23 -36 38 10 36 0 22 41 21 26 -33 10 3 31 43 9 -25 13 22 -37 -7 6 -26 -50 -49 43 -39 15 -49 -2 -2 41 2 -20 15 -25 -13 -50 -27 44 -30 -3 11 -7 -26 -21 -23 30 -21 5 8 -23 9 7 -45 41 37 13 20 20 -23 21 16 33 -25 34 21 2 -26 31 4 31 12 -49 22 23 -33 -24 16 37 -25 -3 4 -16 -42 6 -36 16 36 32 -18 6 4 33 33 -54 38 -7 -40 -40 -13 -36 -4 -22 -32 -8 -19 -28 -5 -41 -10 -33 6 0 45 5 -21 -18 5 43 -49 -39 -42 11 9 -50 -55 4 -2 28 -20 34 13 25 -48 -43 -20 16 1 -42 15 -38 -45 -3 18 25 -28 -49 38 -37 22 38 28 1 -39 16 18 26 46 -29 2 30 -40 -28 9 -43 32 -30 12 -17 16 -36 -39 10 0 18 12 22 -20 -20 39 18 -41 -40 -38 -12 -39 -39 25 1 4 12 -2 20 45 26 -30 7 16 -10 3 32 37 -31 -34 -26 -33 -1 -47 28 32 24 -28 14 -13 24 -23 -47 -51 -4 -35 29 -49 45 -22 24 22 -23 31 -46 -43 -15 -52 -1 4 -14 -42 -41 15 -39 4 -39 25 3 44 -44 -18 27 6 18 26 13 -37 30 -29 33 -45 -52 0 8 -25 -46 -25 -14 -17 -34 30 27 4 -46 22 23 -54 -45 -39 -48 35 -21 -30 9 37 -23 -19 31 -7 -38 -45 36 24 -18 12 25 -16 16 60 -49 55 81 14 71 -126 69 147 87 10 -108 104 32 59 -11 -24 30 -40 -4 24 -47 -40 31 -34 24 -28 6 17 65 84 -68 -35 12 70 21 -120 46 113 67 -11 4 108 19 19 34 38 43 -33 54 -31 12 119 148 105 -118 44 124 150 22 -23 106 -50 -78 -10 19 27 -85 2 82 65 -63 -44 36 14 50 40 -5 28 121 -65 -23 17 17 104 -266 134 -26 -12 31 -5 175 -140 5 33 58 -98 -27 29 -58 35 50 25 119 -32 48 15 -67 44 68 64 -107 -9 7 41 -38 -56 44 98 50 126 102 101 -43 -53 22 14 6 77 59 65 16 -23 -42 50 27 -83 -106 94 33 -33 -64 112 33 40 16 128 145 26 -115 4 205 107 -17 -43 14 155 49 106 -37 108 -7 -57 -5 6 -30 -35 13 32 14 -75 -4 -11 29 -37 39 25 -15 65 -18 65 -58 -93 -69 -13 36 4 -69 26 53 53 49 -5 25 -24 154 124 116 -15 76 -16 104 78 113 51 -115 127 77 92 69 -38 109 -122 -29 29 -6 -29 -131 45 80 -70 -82 47 5 32 29 30 148 62 -4 56 70 74 126 48 -1 -21 -18 16 65 -43 -75 15 29 33 37 40 -2 19 -17 59 21 80 89 85 -20 28 1 70 25 -11 -36 -41 -64 4 -23 -1 -85 21 89 48 10 97 42 19 48 23 2 68 1 91 -9 -124 8 31 14 -9 -83 64 14 105 59 -18 58 46 183 2 -28 5 57 -31 -15 69 76 58 -21 -64 1 102 -15 18 57 -100 26 34 118 -48 -76 28 -8 164 37 84 18 -49 28 45 -7 92 -4 37 33 9 2 93 103 -152 -72 42 44 -72 -29 125 29 91 -14 76 79 10 -3 27 72 51 17 -33 92 -48 49 168 22 0 -125 41 50 62 -76 -59 0 46 68 49 1 62 19 26 -11 36 20 64 70 61 -84 -139 -26 29 -56 -89 -33 83 -27 104 130 33 32 -46 123 52 1 -21 3 -3 -9 -33 -87 1 -50 17 -56 -79 3 46 33 29 57 -70 4 -69 -90 48 -9 17 66 45 0 49 11 -6 -30 -48 -38 -24 -50 -98 66 -28 -29 -3 70 -37 -55 20 12 9 95 -51 -19 28 -83 73 -13 37 -89 -137 48 -22 -30 4 6 -12 47 23 23 -7 23 64 -30 -72 20 63 -18 -7 96 -22 -3 5 90 39 -33 76 39 -7 -24 36 -68 -15 122 113 49 40 2 92 24 16 -11 27 48 142 97 35 -7 -73 12 -43 -109 24 2 -47 -6 -36 27 9 28 24 52 -56 61 6 31 22 -105 -86 -39 0 55 -24 33 30 21 -109 -24 64 -13 -23 -5 68 -18 -17 7 44 8 -2 84 14 -45 -23 36 -105 -9 45 36 4 24 45 -8 52 127 10 -33 -11 37 34 20 58 1 -23 -40 -33 -12 60 -11 2 29 -33 16 37 21 -1 11 -119 54 -59 -19 10 60 27 27 30 -19 59 -31 -51 27 5 -22 17 -86 -37 -38 20 -41 25 -107 -14 11 19 51 -21 15 -98 50 58 43 -7 46 71 -53 -16 38 -1 -35 51 -10 -55 -1 -17 -31 -91 -17 19 29 2 18 11 -59 27 -43 35 -18 14 -28 -12 -48 17 45 -12 47 19 -31 -42 -24 1 -48 -16 -111 -26 -5 2 41 -37 74 56 7 -22 -8 -39 42 -16 45 24 -53 21 -27 -54 -50 -4 -12 14 5 -48 61 38 -10 -10 4 -1 -39 30 31 31 -83 -14 -42 -64 -29 -3 -31 36 59 -43 26 -14 -3 -1 -126 12 -26 39 2 -12 53 52 -34 -21 1 -84 -58 -8 34 39 -62 -70 -6 -9 -53 -15 -65 13 17 -88 2 38 -9 -25 41 5 -65 15 3 -17 35 -11 42 33 53 -20 59 -3 -23 79 -12 -36 -66 -112 -89 -27 61 -45 -65 -45 -6 27 -36 4 35 37 19 -58 -2 19 -27 3 71 33 -13 31 65 25 9 -47 39 -49 -26 21 9 9 25 -44 62 34 -26 36 21 -12 13 -88 -77 16 53 98 -21 45 -21 36 -34 39 26 22 3 -12 -28 -4 25 -28 22 -27 11 40 -40 -11 35 -44 -23 -32 9 -7 -19 -18 -46 33 28 -4 -34 47 33 -32 14 45 7 17 -19 -26 46 -31 -39 -31 13 36 47 -50 -49 -41 47 -38 -21 22 -13 -1 -27 4 9 -29 18 -16 24 47 -36 -47 39 43 -22 9 8 12 5 26 48 47 -10 48 -7 20 21 -35 13 -19 41 28 34 32 -41 -22 -18 -39 -13 -21 -5 31 29 17 -4 22 40 -11 -12 3 -27 18 -23 -21 -4 3 -44 -46 -21 -30 -18 24 20 -10 18 -46 7 27 45 -29 -41 19 -16 -1 38 -19 -43 42 25 -44 -6 -26 16 -32 -8 -5 3 10 -10 9 -45 -2 45 -30 16 -9 -35 -32 -39 23 28 24 37 7 28 -28 -30 -32 -35 12 38 -38 45 44 -18 43 -21 32 -27 -13 3 -14 -34 27 4 -13 -21 41 -39 31 27 48 29 8 -33 -25 28 -22 -45 8 6 -40 -48 -7 14 -30 -22 -7 27 7 -34 -31 -7 -13 38 -26 28 25 19 -19 37 21 -43 -1 36 20 -48 7 -34 25 3 -45 -35 -16 17 -9 -24 47 -47 24 -42 -33 -17 35 -48 1 -41 -31 -35 -18 -44 -28 15 -19 49 33 -25 35 -3 18 -47 49 -47 -17 2 -4 -15 40 -37 -23 44 16 -20 -11 25 -13 -5 17 14 -7 33 -24 21 26 31 -48 5 34 -32 15 0 -15 -48 -36 -32 -39 -33 23 -27 -3 0 45 -19 -49 -43 -28 9 14 17 -42 -18 -33 -41 8 35 -5 11 13 -24 -19 -28 13 24 41 15 22 -26 45 -20 25 -43 -29 -49 -12 -33 28 1 17 -33 -47 -45 49 -37 -9 27 -34 -29 -47 38 -15 4 -25 19 39 -33 -45 -35 6 -12 8 -22 -15 -43 28 19 45 -13 4 45 -38 26 -30 -36 -5 -39 -47 49 -10 -10 -49 0 33 38 2 -43 -26 -24 46 -12 0 -24 -1 -18 -24 -48 -7 -35 11 -42 5 -38 37 4 -44 -26 60 -8 -76 59 -70 27 -1 6 94 -2 12 6 5 -4 75 14 -30 47 52 -3 10 20 -46 -30 -79 21 68 4 2 -35 27 25 19 75 35 73 12 -19 26 28 4 -63 -53 7 1 52 -51 96 81 -49 -26 -87 34 -82 -15 13 12 91 32 5 -24 7 11 73 44 -50 -8 -19 -51 76 50 -35 7 -18 13 57 -181 -190 -87 63 -66 -106 -32 -38 1 -106 -47 -130 -17 69 -109 -61 -20 -14 -4 -97 -50 -89 -26 -43 52 106 31 -5 47 72 -21 -39 25 6 65 -11 -53 -17 -1 63 -30 -57 30 -1 -34 32 19 72 -8 -39 -10 40 -29 -22 16 66 -16 5 9 15 -1 62 -12 6 24 -27 -88 -17 98 37 -6 41 70 -172 -114 92 3 -129 -39 -33 54 92 61 4 -9 49 -22 56 -20 50 44 -40 6 96 -29 38 -28 -42 -41 -7 51 -42 65 -11 -13 21 -19 -33 4 61 7 -13 -4 -25 1 -6 -39 35 -27 65 9 19 42 -51 -80 -115 3 -79 -80 -23 44 82 -51 -5 3 -26 -17 49 22 -84 22 -55 18 70 -32 -27 -69 -36 -140 21 26 100 -18 -31 61 10 45 25 -10 -18 39 24 8 -14 -33 -42 27 -5 21 28 -31 -41 3 -36 -17 -5 52 40 44 22 5 36 5 19 58 -29 39 41 24 21 51 -35 13 38 43 15 -33 31 -69 45 14 27 2 -23 -55 2 -34 24 -59 60 38 -4 -47 69 2 19 -35 -12 -58 55 110 20 6 -43 -52 -24 53 95 -14 7 32 -57 29 39 47 20 -64 17 17 15 74 58 22 -32 112 78 -51 -1 -173 16 17 -50 -10 -17 88 13 -37 8 -48 20 -24 50 28 10 22 -83 -45 62 61 22 -33 82 37 -101 -38 94 -46 39 -16 30 56 54 110 4 68 -54 -62 -19 -5 59 -23 27 -16 42 15 23 -47 -7 25 5 16 42 -42 59 71 -38 -54 82 -13 7 65 -13 -36 72 23 7 -31 42 -12 18 45 67 27 16 57 35 16 -64 24 65 21 31 -34 -80 23 2 -32 43 -15 19 -1 8 -41 61 -27 -1 -16 37 13 16 27 -17 64 -56 4 -35 76 -58 -57 0 44 -31 21 31 -37 47 -37 -37 1 -10 61 37 142 84 31 103 36 -77 -5 67 80 2 6 -38 -1 -79 15 -19 -14 -79 30 47 -1 -8 17 -47 0 76 0 -108 -159 -80 -55 -33 -83 52 -19 -56 -88 -34 -57 -29 62 -8 -18 -48 49 57 40 112 28 -1 -24 8 48 13 34 94 -31 -65 -74 -36 53 3 -51 -5 40 37 29 31 -27 2 23 98 60 53 35 118 69 84 -10 -14 19 -28 3 16 -21 -21 -31 -27 46 57 -51 27 50 23 5 1 -10 11 34 -37 54 59 164 125 -59 -42 70 9 39 83 31 68 -46 -50 -55 -6 -63 -24 31 -5 -22 66 -32 -28 26 48 41 47 54 66 85 -75 -88 -31 12 0 8 -17 6 44 18 176 20 25 -24 8 118 149 33 2 100 47 98 145 30 -39 23 79 87 -12 -37 -23 -14 -71 -36 -1 -94 -53 38 47 -28 -27 -27 -37 -34 55 6 143 42 72 -9 65 32 55 13 5 -41 -51 -16 -60 -54 -51 -12 1 23 59 23 -22 -11 47 73 -7 35 69 95 -15 -22 -32 41 -29 24 -13 -70 -31 -8 16 -19 -65 2 -22 -1 95 21 -43 -24 86 23 35 60 6 -6 -68 -71 -13 19 19 40 -40 -22 33 -18 135 -16 -37 -15 -3 117 82 -17 47 35 -1 -16 27 58 70 -66 -58 -1 -37 35 22 -87 -21 -10 35 33 -95 23 9 56 110 90 -37 -10 62 15 105 30 30 55 -18 -35 9 34 -19 -24 -81 17 65 -20 38 41 39 3 31 5 5 13 93 75 58 73 62 -34 -19 32 23 42 80 82 -75 -39 11 -17 -5 0 -63 34 63 -42 33 -5 -32 41 25 29 -27 -15 63 70 -50 -54 -6 -57 -67 12 27 32 -4 -6 74 -59 -56 18 88 79 143 45 50 19 21 -57 -14 -23 54 -38 8 9 -59 15 -33 5 -39 -32 58 4 39 49 -25 -37 -25 9 -53 2 4 -7 13 1 -49 37 -6 30 -13 28 -35 30 23 -28 15 46 -17 39 8 -47 -23 -40 -49 -9 -32 -17 -20 -21 -7 -11 21 23 30 -35 -12 -24 -27 -15 -30 -14 23 -19 27 28 29 -27 47 -10 26 1 15 -19 30 -35 -26 34 35 -12 12 -38 26 -8 -19 -48 -5 9 -4 -38 -45 47 31 -11 7 -38 -4 -4 13 -27 -15 32 -11 -2 35 19 39 -22 -64 21 -8 29 -57 -47 -21 -42 -19 -6 11 -12 49 2 17 38 -27 38 11 50 -50 -31 -34 -28 -50 10 29 24 29 -7 -42 2 -24 -34 -27 3 1 49 -26 -37 31 -17 -17 -22 -36 -45 14 -11 43 -43 -33 -1 -6 23 19 -48 -31 34 -41 45 4 30 36 -37 43 27 8 -4 17 -22 48 -38 42 1 -59 13 -42 -59 -13 -54 14 1 12 0 13 36 62 6 20 -45 -1 47 -29 8 40 28 20 -46 -40 29 6 14 -37 -5 21 5 15 -10 -10 22 -23 33 3 7 -42 -15 30 4 -48 -29 -46 4 18 14 21 10 -43 -32 -41 0 -22 13 -24 -20 -31 -30 41 -7 -52 -30 -17 -53 46 11 -10 -20 46 -1 20 -45 -14 -47 27 4 -30 32 -28 -7 -4 -59 -47 -39 45 -21 -38 -35 22 24 30 5 25 35 -25 42 -50 17 -58 -8 -42 10 -22 56 -30 34 2 20 16 -2 7 -21 7 -8 -33 31 20 26 32 36 -24 -30 20 8 -42 6 14 -8 41 37 39 -20 30 36 -36 -43 21 -2 -52 22 5 -34 5 -63 -21 26 -1 9 -10 20 6 50 -26 18 -18 -23 44 27 -26 -29 -13 -20 -42 -41 45 -43 21 9 -17 -32 -12 26 -16 -2 -5 -9 53 5 -2 -23 31 -28 -22 11 -56 25 24 -46 13 -29 21 3 -42 -31 29 -31 -33 -27 6 43 -34 46 -11 -26 -36 20 18 -30 -26 27 -8 -46 6 59 -24 24 14 -17 57 3 7 -16 53 42 -2 -37 -15 -6 -17 -9 66 17 2 54 20 10 -35 86 14 -11 -45 -105 42 9 11 49 97 30 -12 -73 -26 -121 23 49 -17 53 -7 60 7 35 -53 -153 -32 -26 52 31 49 56 19 3 43 1 59 -35 -13 -53 15 16 -38 17 -40 -32 54 7 -57 11 32 7 -39 -89 -115 -41 -52 -40 -28 -136 -59 -49 -95 -160 -84 -18 7 -162 -122 -35 -51 -79 -246 -255 -126 -13 45 16 34 -31 51 52 27 -55 51 28 -6 65 44 71 36 42 -3 3 55 73 52 87 132 51 19 2 23 47 -55 -56 58 33 -1 -86 -40 48 -20 -17 4 26 -7 37 18 -59 39 55 60 10 56 -111 -158 -86 90 -16 -9 -57 -126 -42 -43 -45 -20 -10 21 -59 -45 -125 17 1 -40 -22 -27 11 -23 8 -70 -38 24 -47 -9 44 19 35 47 35 57 -61 56 -30 -22 66 -81 57 50 56 35 -31 71 41 59 -30 -33 -95 -55 -34 19 -13 -71 46 -42 -30 53 -59 22 -43 -20 -54 -90 75 -5 -8 44 -42 -24 -35 -15 -15 -22 54 72 -13 24 19 -24 20 2 9 16 47 -1 36 8 9 25 -65 -55 58 68 12 -27 43 53 59 9 80 51 52 4 44 25 -11 58 2 12 58 58 44 35 18 0 -32 12 77 27 88 23 6 -12 -41 -67 22 -4 -1 13 -20 17 -74 27 59 -42 -13 -64 9 16 -19 69 -102 98 103 -25 13 62 -46 42 42 60 18 97 -3 -52 56 -107 17 -4 -27 6 -122 13 76 -47 7 -56 60 75 -12 15 -65 33 -7 20 -15 -25 44 -40 3 -2 -8 80 -22 -11 -74 -38 44 -13 47 -30 3 0 50 75 -77 -28 19 34 38 68 -29 59 -45 -53 -10 -4 88 -11 -5 -21 -19 45 40 -39 -92 26 51 23 -57 -17 69 0 -28 -13 -64 11 26 56 -16 7 -84 -7 18 -7 -15 -56 32 -33 -3 -49 -119 -10 20 -4 -118 54 -57 4 -14 3 96 5 -98 -3 -7 116 -79 -30 68 65 113 16 45 -63 -8 -29 12 -46 22 6 13 12 13 37 111 80 3 17 -43 -36 36 -64 12 54 87 44 -25 49 40 -2 -27 24 23 18 82 58 -24 23 -55 -116 35 -28 49 19 101 13 -82 80 34 14 56 96 -66 3 105 34 -27 -57 -2 -19 19 42 189 138 87 102 85 -60 -104 56 105 -39 196 83 108 -36 47 120 -80 31 -3 157 91 148 20 55 -16 -26 -12 94 15 90 -6 6 15 71 24 -105 -20 44 77 4 -9 9 22 -29 18 6 -21 -109 -33 5 42 33 65 5 52 51 20 10 27 40 -40 -61 -1 63 -31 -19 88 14 -15 19 -13 51 -102 75 21 -140 -114 48 -48 31 111 -43 1 52 73 53 7 13 103 32 34 9 -6 -14 -51 -41 -15 7 36 49 6 49 64 55 52 -39 24 53 47 35 -16 -35 36 31 25 -35 -30 -23 -23 -4 -24 -47 -69 68 15 5 -148 54 17 -74 39 -34 26 -17 -38 140 -11 59 37 39 -31 41 108 -40 21 28 21 -29 11 -62 -102 -77 -106 -50 -12 15 37 88 39 17 56 9 3 97 -41 -37 67 114 -43 24 -7 24 -25 22 -47 -54 -71 -50 40 -3 62 -1 37 1 -13 72 28 -2 50 25 -86 -63 74 -41 -29 41 1 -51 -3 54 40 -20 60 95 100 -62 -54 20 92 63 -26 38 97 -54 86 24 -58 -3 90 45 -57 -85 -57 49 19 -6 26 48 138 -62 -39 27 96 3 48 19 -38 17 -22 94 -64 -14 68 66 -37 -71 -58 1 -2 -11 -41 33 52 47 24 56 26 11 94 48 -47 54 42 46 -15 26 57 0 41 -52 -28 -20 -38 32 -27 -146 -38 -64 13 66 11 2 88 72 36 20 74 85 72 -34 2 1 89 -29 -79 0 12 -45 -23 -20 25 39 82 90 66 1 -63 -21 79 -32 -7 7 126 -20 45 51 -7 -17 10 26 -51 -90 17 107 -8 61 -51 107 -8 -53 43 -79 73 -33 68 20 -82 86 -35 -9 -43 -91 -4 -38 59 67 -31 -49 51 -12 9 50 66 -97 -42 3 -55 2 -92 49 10 -45 2 3 94 17 -113 69 81 -5 -60 -75 41 -12 -1 28 6 114 -75 75 4 -9 89 -55 45 -37 22 32 2 -49 -64 36 -19 42 19 46 1 23 10 -14 121 181 93 -52 51 86 53 27 62 252 56 104 36 126 45 -22 105 8 66 84 252 123 15 54 -47 11 -27 -8 -39 -67 34 14 -77 -75 -102 -8 -71 -102 35 55 61 11 3 85 56 4 -15 17 52 64 -53 6 -25 12 -25 -4 13 8 -51 -36 3 8 -5 -78 24 82 70 82 26 11 -50 3 110 117 184 -15 36 36 112 124 -29 65 4 -42 -75 -27 1 -15 -51 22 70 -34 -42 -12 105 7 -26 44 33 42 40 41 -30 -118 -142 -50 -10 -49 -48 -39 77 -41 -60 89 -17 86 45 -14 -2 -26 -52 19 -40 44 85 128 173 59 78 136 -66 61 60 -31 29 -54 100 -28 -6 -41 -54 89 24 6 90 67 -12 40 104 38 23 -34 31 36 69 55 17 14 -85 -51 -22 4 3 -76 12 19 -27 26 67 -5 -5 35 0 74 25 -5 -9 46 -87 6 3 -11 39 -92 -78 -70 35 -67 1 -22 10 9 -20 43 1 73 19 -38 22 19 20 27 -12 -51 -55 -73 19 -38 -117 -71 39 27 -39 101 60 5 -40 -87 65 -33 63 34 -33 47 -23 21 -30 -61 -155 -32 -12 20 -34 46 -84 -51 15 -80 92 3 85 30 -24 -43 -50 17 -22 -1 148 -27 -41 38 36 94 -57 -15 -53 -6 -47 -36 60 -35 36 -36 81 59 -22 27 45 47 -19 -43 33 110 24 -18 -44 47 59 44 -8 27 35 -58 -91 36 -41 17 -49 -41 -27 -55 -56 57 27 67 -29 -38 5 -7 -1 -22 34 -56 -63 -78 -54 -8 6 43 13 35 -40 84 97 81 -20 75 27 -100 -67 49 56 70 -5 70 30 -52 63 -43 -24 40 -78 -18 4 26 38 -37 5 13 33 -26 64 31 -37 43 89 77 52 -21 60 78 35 -5 -17 4 -23 -128 -36 16 83 108 -32 -19 25 62 58 -63 -37 -4 16 51 78 -23 30 28 -8 -1 -14 6 95 -46 18 27 32 57 50 -42 21 41 0 32 109 4 -30 50 72 38 12 -10 113 65 -4 8 4 -47 -87 19 6 54 56 21 125 24 41 -1 -42 -22 89 138 37 38 72 147 29 -19 60 15 -25 -48 26 88 38 -64 -48 -33 48 -1 36 32 53 20 96 52 2 1 -28 21 55 56 40 29 34 56 -29 -45 92 89 -32 -29 20 -39 2 5 -52 22 98 24 36 26 56 -60 6 193 71 -123 -25 102 156 34 67 -56 31 21 18 -31 19 -50 -4 11 -51 65 61 23 3 -2 45 21 124 102 77 42 -16 -8 -82 -36 30 29 15 -28 -1 20 56 20 -8 42 55 11 144 36 -3 -7 -1 37 49 -12 -116 41 102 23 42 21 58 11 36 96 22 58 5 -11 -29 16 90 25 -7 37 10 -5 128 21 20 -42 -17 33 17 72 46 16 13 -52 -32 5 41 3 -18 7 -4 66 8 -38 65 68 -1 109 96 71 -4 -52 56 -11 59 -11 -8 5 -33 12 54 57 -74 24 -20 62 30 49 20 29 66 9 98 55 10 26 40 42 -30 -34 53 36 113 -77 -50 44 58 38 22 -1 28 -4 124 -61 -31 24 17 50 42 37 50 -67 -12 21 -13 79 15 -8 29 -50 80 28 60 -29 -26 20 32 114 -43 -55 24 47 158 14 20 89 -1 104 -14 -54 69 -32 31 -21 56 45 -2 -1 -45 12 59 7 44 29 88 -25 -76 64 29 -22 29 -37 26 54 10 71 -5 -30 -32 -5 90 8 37 7 2 8 -9 14 21 70 48 -13 82 62 25 10 79 -6 4 47 20 -42 51 1 25 69 97 -15 79 52 29 -2 115 15 -13 39 23 11 12 35 19 -105 -45 8 118 15 -150 -88 14 123 15 -36 -47 -43 88 80 13 -64 -103 18 65 -12 -14 -4 22 -24 -3 -74 15 110 16 -123 -71 28 120 -34 -82 -52 -50 9 -37 31 -13 -20 25 87 97 -50 125 133 -33 -214 -55 121 19 -2 17 -101 94 -20 29 54 -108 -30 94 61 -26 -13 -31 11 -39 -30 13 45 -67 -43 -17 -34 41 24 55 51 -89 31 -51 166 103 32 147 -118 187 23 128 169 146 95 -49 54 59 -4 91 52 -9 -44 85 69 -95 -72 -24 21 24 -89 -53 -67 -32 -68 -28 44 18 21 52 118 -40 71 17 110 38 -9 47 18 34 -61 -51 -19 4 55 -87 -34 45 -41 15 43 -25 77 43 -54 81 162 79 -79 -133 83 41 15 32 90 80 15 6 74 36 3 -47 -6 70 39 -11 -20 -99 38 58 -26 35 -56 68 22 -28 -34 -54 23 46 -24 -5 -81 56 66 -89 37 -92 -30 -16 -54 225 69 14 -9 95 31 134 67 -24 9 0 135 53 -2 88 -46 71 -7 27 53 -21 54 9 108 -6 -64 -91 -27 35 59 74 68 21 -23 -86 12 66 66 13 -40 -57 -1 26 7 -2 -50 59 83 7 38 -11 -78 -57 -15 -33 44 56 110 6 -8 -62 27 55 38 -37 -103 -23 75 -1 -64 -109 1 -6 32 -36 -48 -47 -7 -41 63 40 -43 13 113 50 -50 -70 -8 53 -71 29 -23 7 95 -54 113 -140 -99 46 -46 272 26 -82 24 36 -50 -22 122 66 -21 -25 -31 -10 88 -45 24 -78 20 98 -65 94 -146 -15 30 -8 163 -51 -64 38 32 80 55 75 54 38 70 -68 97 99 -29 -28 -40 72 -20 -46 4 -20 52 -21 29 -59 -20 5 91 91 91 55 26 23 -33 -7 -29 109 62 -78 -57 -29 53 30 -73 -57 -5 92 84 -56 -41 -94 1 -14 -12 -1 26 66 8 37 -6 -36 61 34 -101 -44 35 65 53 -33 73 -71 0 -22 112 240 121 73 99 99 48 -9 43 17 69 -19 19 -23 -54 -13 3 4 3 -4 -60 -39 25 34 4 31 -37 -26 25 90 74 -19 -20 -16 -17 9 -23 27 75 19 -53 -26 33 20 -22 8 29 -5 92 5 -19 -41 4 -9 10 -27 13 24 33 -33 235 67 6 -5 -83 77 -41 34 83 36 -21 -19 38 67 -28 29 32 -2 -11 20 55 26 0 172 206 116 75 192 125 34 114 64 -37 -25 63 20 -38 120 125 -58 58 -18 55 -14 68 104 89 -37 -6 -44 16 -44 -31 70 29 -40 13 51 22 28 56 -61 -53 35 10 23 10 42 -28 11 -70 50 -25 20 36 36 22 -4 10 93 46 56 69 66 20 19 21 -33 -31 53 -8 -44 71 96 19 -61 88 11 -35 89 114 17 -68 -60 36 -14 -29 51 -9 -39 -43 26 -20 71 58 87 14 57 1 17 13 42 -46 15 -9 -62 34 50 61 89 11 -17 15 55 69 43 0 28 15 32 27 117 -36 -46 -25 8 86 40 75 86 104 32 3 -20 -26 59 -18 39 84 -27 -40 42 97 33 43 8 48 -24 -1 84 4 65 17 -61 -9 103 -40 -24 -55 -15 -24 -4 61 57 3 25 -11 51 -4 13 3 16 35 63 45 46 24 -11 -7 -62 26 29 8 0 43 -19 -49 -6 42 30 -41 -10 32 28 60 34 -56 -58 12 32 -28 -15 -2 5 -13 -59 38 80 31 -15 -29 -16 -11 8 74 12 25 14 40 69 71 178 -20 -87 46 21 -11 68 -57 -16 -25 10 50 7 38 -16 -37 -42 13 56 0 28 33 7 41 -1 22 -79 -25 49 -9 48 -11 11 7 52 -42 9 81 36 48 62 53 14 -26 65 62 -35 9 77 48 -44 41 34 -6 -84 131 29 32 79 101 -9 -60 -21 -15 -54 25 62 37 4 -72 -24 37 74 57 55 -23 30 56 70 -11 19 32 -42 30 -53 28 55 101 93 -13 17 -7 44 14 -4 -30 -35 -3 51 23 102 3 -74 -87 25 -18 -54 -44 130 -8 28 -78 -72 68 -71 78 -81 2 74 -63 14 15 -16 5 25 64 12 57 35 -8 -26 -87 -25 76 -20 37 -22 -50 19 -31 2 -5 42 72 -52 1 -17 -8 46 -80 66 -8 -42 -4 -65 -43 23 120 53 2 46 -139 51 -41 -13 -23 -66 9 -46 27 91 16 7 -10 66 12 -3 -4 29 -25 3 -32 68 103 -77 67 -7 160 41 156 73 -28 194 -4 71 23 21 85 -13 45 126 56 54 69 -4 0 -16 -51 -8 57 -8 -1 -18 30 19 93 14 -45 46 5 47 46 27 43 -13 -15 -12 -27 -82 -29 -28 -3 -24 39 87 17 7 -19 13 -20 31 2 -14 9 -34 39 -11 -12 16 -16 -11 24 5 -77 -51 -77 -49 -90 -36 121 -125 6 30 4 61 15 4 -40 53 43 35 -48 18 69 -15 -27 63 -28 21 17 -36 8 14 -12 77 71 -8 -42 55 11 48 66 23 -13 79 -53 33 -43 -30 -49 1 -14 -33 -5 -41 31 -2 157 10 145 -38 -86 76 -45 48 -35 -46 49 -22 -21 31 -3 -52 -48 85 -1 -55 59 -46 13 2 18 -37 -24 11 20 -56 2 78 14 3 -48 30 18 37 59 34 20 -35 -3 41 -42 -9 19 -24 7 1 12 22 17 -27 -1 20 -14 26 72 53 39 46 27 25 65 -30 49 -16 8 3 -50 -9 5 8 -53 -19 -28 94 29 28 -38 -36 78 77 26 -21 -47 49 -78 18 9 -36 34 46 18 -26 10 57 36 -44 23 -6 69 51 -74 -18 3 97 33 9 4 28 99 32 54 -57 -40 59 22 -1 -55 29 43 -22 -20 -43 22 24 -29 36 -37 74 -42 54 -49 -42 18 -44 62 -49 -17 58 -88 -12 24 -26 -33 -52 40 -59 4 61 67 -22 7 -46 18 6 -21 -56 -70 71 26 29 -30 -21 43 17 -11 -6 -46 -10 -31 -22 -52 -3 68 5 15 -10 -34 27 57 34 -11 17 -7 -25 -5 36 30 -28 -54 44 -29 -158 -113 8 56 65 26 30 -77 -11 35 -4 41 -3 -18 53 -32 85 51 18 22 -15 49 -64 57 67 60 12 1 55 77 82 21 -67 -22 18 27 -20 1 46 74 20 10 -14 32 54 68 37 14 -3 67 40 -15 -161 -7 30 84 25 -2 3 89 13 25 -47 21 42 -49 78 38 31 -12 2 -19 44 14 75 25 12 60 -33 8 -2 -7 18 -46 58 -104 67 -62 96 120 -63 -24 -139 120 -43 84 -97 -39 -107 -169 -143 -116 48 72 63 4 19 -51 1 38 26 -17 -3 -39 7 -4 47 81 -20 16 72 34 0 13 44 73 93 -46 41 45 71 64 -30 31 8 39 -12 -15 -41 44 -26 -24 63 -22 35 32 36 18 62 57 74 55 -26 -31 83 14 88 -75 21 44 79 -16 -100 -29 -42 12 51 17 -51 -73 -9 -32 21 39 9 70 71 -40 59 62 55 25 -22 -31 33 -35 -18 33 -73 -28 -32 -90 23 -3 42 107 81 51 -92 4 64 98 13 28 44 37 82 37 -8 4 4 44 -50 -6 17 -44 33 0 48 -65 6 -44 1 -29 74 61 24 32 -1 45 138 33 -13 58 51 5 9 5 2 18 45 -12 73 -32 26 -28 10 0 80 7 68 70 -3 85 93 26 101 21 -22 56 51 40 11 -11 -37 -39 -17 31 2 65 -4 0 52 64 107 45 57 28 15 -34 35 40 36 -29 -12 -28 66 17 -34 30 -38 25 1 -87 83 99 16 -9 -90 31 97 17 40 35 41 36 22 2 -3 -19 30 77 51 8 -19 3 -20 55 -33 87 60 -23 -26 -84 79 83 42 12 89 47 71 -30 5 38 -8 5 3 12 -13 74 31 18 77 -21 34 64 69 65 66 97 75 88 -57 91 104 65 62 16 -12 -16 85 6 -28 -28 9 20 39 122 -10 -5 0 -12 -52 28 74 29 69 39 -14 37 10 16 -74 -77 -53 0 -4 7 22 40 16 -2 23 -1 70 104 61 35 -87 6 55 21 -101 25 5 -78 10 -58 -29 99 24 66 -72 49 -3 -6 21 -17 -3 13 -15 23 59 9 48 -37 77 8 -13 41 69 70 8 51 49 44 73 -34 -17 -10 9 13 27 20 54 42 7 -16 -19 4 28 104 81 59 23 29 -31 -164 -7 12 48 44 -54 60 30 59 -80 43 -38 32 55 13 13 70 -2 36 56 -7 6 -43 -196 -187 -107 24 -133 -59 -122 -21 -5 -75 -31 -95 66 -53 -109 -124 -67 13 -40 -18 -76 -13 11 38 2 40 9 35 -3 19 24 59 52 -64 35 -16 5 -32 89 -6 2 -34 83 33 -47 65 50 92 -18 67 57 33 93 61 61 25 -26 45 80 -8 -27 41 50 65 39 26 -51 -41 18 42 -43 -37 13 -89 -58 38 -90 -66 80 6 -5 -11 82 43 56 -38 9 29 2 19 48 0 -31 8 19 5 -2 47 64 63 -9 20 42 -61 -36 21 64 -16 36 -18 3 94 8 10 -30 10 14 41 29 52 47 58 16 -51 -5 -2 -148 -28 -10 -26 49 -52 73 -27 12 47 -61 67 -8 -3 66 36 -11 68 8 41 18 2 -94 -28 54 10 -71 36 98 43 27 40 -27 34 74 -43 -32 33 -32 55 -7 90 -22 -20 -9 48 48 -32 43 14 49 44 -29 65 33 -15 67 47 48 39 -16 80 65 53 56 0 27 18 23 1 5 62 -17 100 44 1 35 5 -36 4 34 -11 -1 -23 88 22 -9 109 -20 -13 47 100 -7 35 6 35 22 -4 64 13 82 40 15 9 39 51 -25 -38 -36 69 62 38 -24 -56 1 27 67 90 72 33 -6 24 -72 -6 -18 -7 71 41 76 -38 2 -53 -17 70 10 94 -58 59 33 -28 -13 -47 -25 -20 50 59 3 -44 10 25 -49 41 47 57 79 97 -21 -16 44 41 -35 -116 42 15 49 43 0 44 14 18 39 19 -12 9 51 -2 1 31 -35 -8 -4 -25 34 44 4 29 -2 48 24 -64 38 -29 -31 67 56 69 22 8 51 3 -2 8 11 28 6 93 -12 21 27 48 57 -28 -33 68 28 39 53 39 54 46 31 -50 -12 86 87 34 34 78 63 -43 39 43 26 -41 58 59 -122 16 -30 21 -39 -5 -9 59 21 9 22 10 -80 -14 6 48 45 -56 4 58 -73 73 72 19 8 86 71 30 -21 44 10 40 -6 -29 -31 -84 45 101 -57 -91 -55 100 -129 85 -49 52 -44 -10 95 -170 3 -29 48 6 36 51 64 56 47 15 -1 -27 -14 61 4 38 63 102 15 -5 94 33 45 49 13 -2 -36 -38 66 -47 -74 -33 -20 39 -8 54 26 44 33 -9 30 34 113 28 -50 68 58 -22 -52 57 75 -27 -26 58 6 -121 -24 -13 -11 -31 -47 -118 -128 173 -46 -8 -70 68 -46 24 82 124 49 57 67 81 9 27 51 -9 -24 6 -18 -36 47 6 7 29 5 17 36 110 52 1 52 39 -1 91 -31 72 34 -88 7 24 -62 -48 -14 15 100 90 43 26 -101 -29 -30 71 -23 -36 88 -22 36 72 83 4 -3 74 96 -13 49 42 50 17 13 -22 29 -39 -124 -36 -46 20 64 13 1 -7 3 20 66 56 63 -11 22 25 12 29 30 66 -26 53 -34 20 28 14 -62 -25 50 55 59 71 104 -3 86 91 20 57 17 97 21 -15 61 -9 -33 -72 53 -14 0 -49 -2 103 43 49 16 91 4 10 41 128 -36 54 100 -4 0 -43 -47 7 40 -22 -105 9 75 100 30 95 -5 -8 62 38 39 89 31 34 54 -14 127 -21 -3 61 -38 63 -48 31 -18 -17 -3 15 6 -4 -54 -30 38 31 74 48 56 -47 45 54 86 28 15 77 1 56 -19 -21 15 -103 14 -12 61 46 17 -118 31 4 -38 58 0 54 -38 37 12 40 52 2 84 8 10 14 85 66 53 -16 46 29 -34 -44 39 68 60 3 78 47 -21 33 29 108 13 -18 -15 30 -75 -45 -11 -56 -10 -58 -30 37 69 73 86 18 -3 25 1 40 26 31 -27 25 16 40 16 -33 -49 -7 -27 0 -40 -41 16 33 24 -12 -41 -53 10 23 21 -40 -43 35 -53 -45 -22 17 -16 1 -34 -21 40 11 -56 -33 -59 -12 -38 13 -7 40 -42 9 -38 -37 -28 41 -48 33 -48 1 -34 30 5 22 -32 26 -10 27 35 41 -39 -41 27 -2 -51 -39 -2 19 41 -57 -46 -54 19 -41 -52 -12 -50 -22 -45 26 2 -56 -17 18 -28 -5 -22 16 16 -32 11 24 -16 -27 40 13 5 35 -37 -41 24 27 26 -15 -55 17 38 37 -4 23 -54 18 -9 32 31 -50 -9 -41 17 -25 2 -28 -32 0 13 1 -38 -51 -52 -46 -36 -18 7 -34 4 29 -31 -49 36 3 -5 -48 -44 30 -38 -11 22 -14 7 -57 -8 35 -36 33 35 -55 -33 0 -39 -34 -38 -30 -8 -45 -38 31 -48 -23 -25 -18 22 -52 6 -42 -6 -7 26 -59 4 -24 -39 22 -55 -35 -38 -20 -46 -19 13 18 37 -46 -25 -15 -37 -15 -57 2 -29 -33 -40 5 -7 19 -50 -23 6 40 -54 -44 -58 -40 31 18 2 37 19 -28 0 14 -54 15 40 2 13 -9 -49 4 0 -27 26 15 -52 -33 -5 -5 39 26 39 -23 -14 7 -30 -41 -8 -38 -3 -2 -41 23 -31 18 -19 33 11 15 1 4 17 -41 20 36 15 37 -38 20 -42 20 28 13 -5 -20 -15 -44 -15 2 -43 -45 -14 -5 25 -28 -34 2 -29 -55 14 -11 20 -34 -36 4 27 18 -38 29 -34 -31 -17 24 -21 -50 9 -39 -25 -49 -27 3 -38 15 -33 -16 -28 -24 22 15 -45 -33 -58 -31 10 12 26 -51 -56 -27 -44 -26 28 -21 -9 14 9 -21 7 -57 -56 -57 -12 -50 -56 -57 19 -43 -4 -7 11 -39 -15 -28 5 -25 -32 19 -59 -23 34 12 -51 38 -53 -47 14 28 -36 1 -55 -12 -9 35 -47 -15 -31 -33 -32 -10 0 -43 -37 -46 28 -44 -57 -11 36 17 -2 32 -26 8 -57 37 46 -66 -3 97 60 -18 -13 27 44 80 -7 58 11 -11 57 53 50 -35 52 -29 13 -11 0 -6 43 41 44 48 74 13 13 -33 23 19 97 48 28 20 -87 -30 41 22 -64 -68 -46 82 65 45 40 5 -77 -43 -27 21 40 -67 -8 -31 -25 103 76 5 -47 47 9 -30 21 30 94 -33 21 75 16 -70 9 51 -24 -14 -3 37 -95 51 -92 -14 0 71 145 -73 97 18 77 -19 73 71 13 83 22 37 -43 -64 -16 -21 -5 24 72 64 10 7 57 -6 -1 -5 61 10 -38 -14 19 -66 -108 -93 31 -10 -19 39 8 12 3 61 118 47 -9 14 64 40 75 0 33 85 21 -6 -14 11 -52 -65 -18 34 1 -90 2 -72 -143 -21 -54 83 -60 86 21 -2 86 67 10 29 60 51 -7 17 53 10 43 0 -5 -34 3 9 46 61 0 47 101 14 39 56 64 91 -8 22 55 24 -46 -90 -60 -23 -19 -14 -89 1 72 81 -14 -6 -79 -89 -58 18 64 5 42 20 45 36 44 74 37 91 85 -13 34 51 72 52 32 -30 41 -23 -79 -60 -97 34 38 65 14 6 -2 58 94 -16 75 55 32 -2 47 76 41 53 33 -15 19 7 15 -25 -42 -29 4 44 8 59 105 -13 42 24 80 5 57 66 -29 55 -23 7 13 19 19 33 14 -90 93 74 54 11 36 37 66 78 -45 70 -84 25 101 -13 6 -7 3 -25 42 -9 -147 -32 86 33 -9 80 28 -21 -18 88 -5 78 79 -27 16 2 53 51 -30 65 -65 -47 -3 53 -16 -76 2 13 9 -58 -57 10 37 89 80 37 96 -52 42 55 62 20 46 120 -33 -11 30 68 -66 -36 -4 12 -29 -20 -8 -40 0 -21 -33 92 37 -3 -3 101 29 58 -13 -5 11 14 -11 48 19 64 64 -6 60 -52 -84 -84 58 46 107 22 98 26 -23 -5 47 38 15 33 24 58 8 -28 6 -4 -95 -56 -65 3 15 20 69 -39 -53 39 -8 -6 -21 40 -16 44 -19 -1 8 -14 19 20 -5 -20 -37 30 -29 -19 -48 1 -49 -38 -33 -10 -17 19 -37 21 10 -44 21 -10 -38 -24 -36 -20 -2 18 -13 33 37 -19 -44 -35 26 25 -54 -17 35 -18 13 -27 -8 -1 -51 4 -15 -21 -31 -45 -54 14 41 -51 31 -8 7 42 -27 -54 -27 -45 -33 -41 27 -48 24 -11 -26 -33 37 35 -1 31 3 28 9 13 -24 -23 -13 2 -43 -34 42 46 -35 16 -38 44 -7 -42 -53 -54 -3 -18 -33 0 -26 17 15 -34 -46 40 -44 10 11 -34 5 -14 43 -23 -47 -53 -48 -33 28 -36 -23 10 34 -37 -19 -15 3 38 -16 -11 9 -16 -21 0 44 40 -39 -47 -1 37 14 -39 -55 -48 -10 -16 -17 -14 -6 32 -47 -4 -52 -43 15 24 44 -34 5 -44 -39 -47 -49 -22 16 42 -37 28 -52 -50 -39 -53 4 34 -28 -16 -36 21 -42 5 -26 -42 36 9 8 -42 19 -33 -45 41 -8 32 -40 -53 27 -4 37 4 -54 23 3 -25 -42 -27 -31 -2 41 -12 -7 -49 43 -16 -12 2 -34 -52 -5 23 -2 -10 -6 -21 11 -32 -23 39 -24 18 10 -30 -20 -4 -13 -4 -46 21 9 -40 -31 -10 -17 39 -40 44 37 35 4 -33 -15 44 -19 -50 -22 -15 44 35 -35 -22 43 -33 26 -1 23 11 -43 9 17 29 25 6 -23 38 21 22 -17 -1 6 -3 -53 4 -13 31 30 -29 19 20 -9 14 33 -50 -4 41 -35 -3 13 -15 13 -15 4 -18 -8 10 1 21 40 -1 28 28 34 -41 -17 44 -38 44 -5 -42 -32 -45 35 -8 18 44 1 29 -42 -47 -21 15 -25 1 -42 -25 -51 -25 -24 -45 -6 22 -17 1 22 41 35 17 -45 -10 39 -18 38 -24 -27 -12 2 -19 -53 -46 0 -10 24 27 4 -48 22 -17 37 -41 38 -30 28 -12 2 5 -39 -3 4 -17 -17 7 -5 -28 -15 -35 -26 41 21 -18 6 -23 45 62 11 67 9 59 -76 -8 -3 27 -16 -68 22 86 -71 -39 -2 -29 6 -39 31 -29 -13 -39 73 -28 -19 39 7 29 135 8 14 38 23 -2 -30 12 64 0 -50 6 55 65 -38 -63 -8 45 -16 43 114 9 54 18 -32 93 -17 87 32 -5 93 -26 54 -41 17 44 -27 -31 -60 14 14 -39 -48 65 -5 -15 -1 30 73 56 62 9 -39 -1 -68 9 -11 136 76 -10 126 18 85 -74 113 48 137 183 266 176 39 69 51 -16 7 19 -8 -65 33 11 -16 -47 -113 27 -19 -58 -60 -16 -22 -76 -7 -1 56 -32 3 120 -11 61 57 68 105 23 -5 -48 79 10 -28 -49 8 -38 -40 -37 28 70 19 -31 -13 19 -46 -73 114 138 127 -2 12 106 82 117 24 29 92 60 -19 -56 -2 -40 -10 -40 59 18 0 39 47 -23 2 41 -21 -15 26 65 77 -109 -118 -42 17 -23 -77 -35 9 26 -27 45 -61 17 -18 -49 40 46 16 -62 50 29 37 2 0 32 12 55 82 -17 144 19 32 -54 22 40 -69 -34 -1 56 19 25 -4 43 48 -30 96 68 39 -4 92 62 43 39 78 32 -58 -39 24 -38 -52 -26 35 58 -28 -24 38 35 -59 -33 7 79 49 51 -58 11 17 59 40 -32 -25 -85 -4 -9 -14 -43 -66 -24 0 -17 12 -12 52 -32 -26 29 -11 -22 77 12 63 -57 -77 43 -32 -57 11 -87 -51 42 9 141 -4 -40 4 -5 144 -46 -21 28 -40 20 44 43 0 36 -49 -75 -37 42 -58 20 -47 28 -3 -73 68 -20 -20 6 -45 111 -61 65 43 -40 77 5 -34 15 36 41 7 -28 23 -40 -15 -34 48 45 -74 -38 -34 28 -24 -61 27 17 12 -57 109 2 43 -20 29 25 63 -2 28 99 -5 -75 -40 55 0 -64 -31 -27 62 22 -21 -10 49 -24 -13 -8 0 -9 84 38 93 -20 -32 29 25 -93 -6 45 64 44 19 101 -30 23 -52 0 97 40 26 147 129 2 25 70 -26 -103 52 -2 29 77 -62 -10 21 38 13 -9 2 -21 24 70 31 59 32 2 1 40 -14 -48 -20 -9 -53 50 -20 63 -19 -81 -31 -12 45 22 -11 -18 35 -13 0 51 9 -29 -33 -1 33 22 72 55 43 -160 -27 -22 30 -27 -56 -29 2 46 -33 -3 -75 36 74 16 24 13 -92 -45 9 3 -13 -68 -78 -149 -12 -14 0 67 -43 25 6 -101 -67 89 95 -114 -6 -22 -1 64 42 113 0 14 51 67 -11 35 56 -51 -63 -26 6 64 -29 125 9 -25 72 70 56 -55 -23 32 37 90 26 -52 -38 -21 28 33 -39 8 2 42 14 17 -47 18 -25 27 33 80 46 8 12 -66 -53 40 8 43 58 -48 76 180 82 -87 -92 5 9 41 13 30 20 1 -12 8 -14 -11 11 39 -19 49 -31 44 -13 17 10 31 -41 15 40 45 25 -44 -22 -42 -16 -27 46 44 -6 45 20 107 -15 -47 48 47 137 42 -29 -68 -37 36 17 35 -83 -23 53 -4 64 38 29 -18 17 -24 32 56 -43 88 43 10 25 -19 -30 -25 76 -10 82 15 16 37 -119 49 -6 -12 7 -52 33 48 30 -36 35 69 -7 -6 -20 81 -7 -61 -21 70 76 40 76 26 40 -67 21 2 -44 -27 -51 -54 41 -5 14 54 35 -10 61 53 91 38 -60 -50 -5 49 23 -61 -34 -15 44 -53 -1 55 64 40 54 40 12 -27 -6 71 -55 9 25 90 245 -6 -103 -22 -19 -21 55 76 34 -63 37 -19 8 -16 -3 38 -18 36 59 48 89 -11 -16 47 12 141 -43 -28 9 42 79 33 -40 27 -10 26 -12 -29 55 -22 16 64 -30 32 -35 69 26 3 -29 50 16 -60 -10 20 41 70 65 1 21 -92 33 -24 7 16 -45 36 27 -13 22 -20 81 6 30 4 -11 -45 -39 -16 51 14 -57 -38 9 -6 -58 -7 -28 69 62 10 55 45 -13 6 26 27 -11 -52 28 74 100 62 -40 -24 47 8 0 45 6 9 10 30 -39 43 41 -32 23 -14 5 -47 1 -23 -50 -33 27 -7 -42 -42 18 44 24 6 -30 34 14 -3 31 -36 30 12 15 -29 -21 1 -23 -33 -8 40 -30 18 -43 8 34 43 18 32 -46 41 -29 -23 9 -24 16 43 11 28 -18 -11 -37 -48 -44 -5 10 -20 41 9 -17 -15 4 43 -49 -21 2 -47 -46 -36 -22 32 -39 46 -49 2 5 -49 -24 1 45 -32 -41 38 9 34 -35 -4 -50 -41 -30 -39 1 -23 -26 -39 18 -14 -33 -36 37 15 36 17 -4 34 40 -19 -32 26 -14 2 -47 12 5 -46 11 -24 -23 14 -13 18 32 35 16 -1 10 7 37 -1 38 -47 -3 -40 -38 40 -1 16 -11 15 40 0 47 -42 36 -14 10 -51 10 3 -41 5 -39 41 -12 12 -4 -17 13 -36 -20 -48 6 -35 21 36 -19 41 23 -39 29 -9 13 31 -12 -35 4 -50 23 -22 16 -27 16 -38 -39 -20 -41 -34 -30 39 -20 -45 -33 -40 48 18 -21 10 -45 6 -10 -1 21 41 -29 -27 12 -13 46 34 -22 39 -16 -34 10 -26 -29 -11 -51 -23 -52 0 21 -42 37 -1 -46 27 -14 8 -42 42 -8 -23 -9 -20 -30 -53 22 -9 -4 -6 11 15 -30 -22 -41 -41 7 23 -48 -52 -39 16 -22 37 -41 15 -14 29 17 34 -22 -9 -21 5 -40 5 27 -15 -26 -36 1 30 28 40 9 38 5 -14 28 5 -14 -20 -23 -14 -11 -21 8 -39 27 3 13 -50 31 13 0 37 -35 -46 21 7 -15 6 15 8 36 -21 -46 -33 1 26 23 31 -20 5 -41 -38 46 25 -22 44 -11 -51 26 -32 -31 35 21 -2 34 18 -10 -20 7 37 -5 8 -28 29 28 -48 6 -39 21 -21 20 -26 -23 2 35 -26 -30 0 -19 22 -37 40 -24 -14 35 24 36 -51 -7 -7 -26 -13 25 -22 -39 -26 10 -24 28 -23 -15 -17 27 -29 -30 0 26 -47 -43 20 -2 -44 40 62 46 74 -74 -8 54 25 -26 -14 13 1 -49 -35 73 36 1 2 27 -14 -36 40 -32 -50 -34 -26 59 2 72 -25 38 13 3 63 -7 53 -11 -68 -7 37 34 59 -39 -3 37 23 78 11 -8 13 11 -2 -3 13 -25 61 -10 30 20 32 -21 -61 -11 12 25 -16 -25 37 -15 -99 28 52 32 -37 19 29 10 44 -4 -3 94 -48 53 -39 69 -37 22 -32 -18 -23 -40 -16 -25 82 -54 -46 19 91 -3 -24 66 28 80 13 71 24 53 -3 50 26 90 3 18 -27 -39 10 -15 -11 -5 30 -25 89 41 58 54 -34 16 78 -15 55 -29 -8 15 21 38 9 -46 26 -61 -40 63 -3 33 -19 1 -31 -30 25 110 87 -20 -6 62 72 35 -54 -24 67 63 3 -69 -38 76 75 -59 -5 49 -35 -54 -7 -5 26 -72 -5 -22 34 10 19 71 76 -14 46 -21 -12 12 24 -21 25 -45 -13 3 60 36 37 -17 52 49 21 73 27 -8 38 -31 -51 21 20 -21 63 61 35 -57 64 21 -15 30 -10 40 18 13 -24 32 21 -37 13 -7 55 35 37 82 3 -10 -7 -2 67 19 37 10 30 34 55 46 22 30 -10 38 1 16 33 -30 -21 28 -20 71 33 40 5 61 -15 69 37 68 12 -17 -26 -17 43 23 -3 -14 -69 9 16 28 -7 17 13 -29 4 83 48 34 23 -1 -5 31 5 -12 -16 -53 11 66 2 94 2 35 5 119 92 -14 -12 -41 47 67 41 2 -29 52 -43 14 78 15 -14 6 -8 -21 55 47 25 -15 -74 64 27 26 8 2 32 50 46 54 -14 27 23 80 -15 -42 47 39 71 -30 -56 21 2 3 10 53 7 -3 9 -3 80 -3 26 29 55 -87 -94 13 48 47 23 73 7 49 4 84 40 -20 -18 -29 -5 -53 -36 -19 -51 29 21 -22 5 50 39 -1 -22 16 -48 30 42 -22 -54 -34 20 -19 48 60 64 14 26 89 101 99 -49 -43 41 73 92 -11 73 18 72 26 8 31 -22 -5 41 38 9 76 9 40 64 -25 41 6 66 63 -9 53 31 -1 55 102 36 57 78 -47 -5 -40 36 -20 -8 -7 -13 -22 48 -3 -70 -43 34 72 37 39 73 47 -57 -66 246 17 58 18 5 91 20 72 7 -6 -2 21 75 69 20 1 -38 48 32 1 -13 47 89 176 187 98 39 73 35 20 -10 43 -24 0 76 -55 -85 21 148 -9 8 -41 133 82 106 85 -14 3 -5 -38 27 40 31 58 18 -48 67 61 45 3 67 14 -61 1 18 47 34 48 -1 -1 -46 -13 36 41 -20 49 10 15 23 17 -1 27 -5 56 6 84 -9 43 17 47 -7 -28 58 89 81 -13 33 30 23 160 97 -3 -38 14 14 26 1 109 47 -25 -29 81 86 68 57 -19 42 36 12 -11 -11 -14 -23 69 37 -9 -3 -2 82 24 -32 -29 -38 -32 74 19 79 -29 -29 81 7 121 -12 51 -21 -9 100 31 -24 135 125 33 70 -31 46 27 -20 74 69 4 12 15 73 -12 14 28 -22 66 48 82 -19 96 -13 -18 12 90 27 50 38 -14 65 30 34 81 13 33 9 -7 34 5 -18 46 -34 1 53 29 -17 52 20 4 -5 0 35 -10 49 21 22 57 64 54 -17 -4 -17 21 -34 -34 -7 -27 51 -3 14 -43 6 -18 11 -58 -32 4 72 32 -78 6 8 -22 29 -5 30 25 40 76 69 129 37 10 48 -17 -18 71 15 -49 -48 36 39 18 2 -4 14 -2 15 56 10 54 10 -25 -14 -17 4 -45 -3 73 52 76 -20 -39 10 4 31 58 67 73 34 -16 49 13 -41 -8 6 -1 64 26 -60 12 54 70 -6 -7 69 -1 43 -18 51 -56 9 2 -44 -9 58 68 30 -15 -33 38 -31 81 23 -39 22 -41 44 0 1 -21 3 70 36 34 69 9 34 12 -47 -44 5 27 69 18 4 37 21 35 -27 137 72 42 5 77 -24 -12 -19 -27 7 -46 -61 -35 9 18 -10 6 28 -37 -15 -40 28 -3 -38 -10 -38 -18 28 14 -9 -8 -40 -7 9 -6 -29 -1 -29 1 35 16 -5 -37 -13 -53 22 -11 -23 -49 34 22 -13 28 1 -39 36 11 24 -53 -38 5 26 -6 -8 18 -39 -50 8 -14 31 -4 7 31 -59 -21 24 -19 10 23 -30 -9 -28 9 0 -49 41 7 -14 19 -38 35 -35 31 13 24 -19 -1 -14 -45 -20 -36 -36 -32 -15 -31 -9 -9 -49 -59 -33 -59 -24 37 -3 10 -26 -6 -49 -42 3 -44 1 -39 -39 -30 -51 -6 38 -33 -30 8 -26 -16 0 -55 -12 -30 30 7 -55 10 10 29 -33 35 19 19 -22 -51 37 -23 -35 -29 -3 25 -28 -54 2 -15 -31 18 -19 40 -36 1 -35 -27 7 -48 -30 14 -54 -52 -57 1 -30 22 3 -14 27 -30 -51 -30 -46 -45 -18 13 -13 5 -49 35 -20 -54 -20 -27 -3 21 -42 31 -13 27 -35 -21 8 38 -55 -48 44 -31 -1 21 33 16 -57 19 13 26 11 -30 -14 -16 -10 6 -55 -10 23 -15 16 -8 26 16 -34 -21 -36 -7 -52 -11 31 8 -40 6 1 -55 -11 -25 -15 -6 -33 -9 -27 -35 -50 32 -38 -33 -23 -30 -16 -45 23 -15 -17 32 29 -11 -34 -52 32 2 23 -55 -57 34 33 -34 -44 13 38 -37 2 -26 -41 -30 -9 -2 -11 27 -40 -20 28 14 -41 -35 -31 -57 -19 39 3 13 -18 23 7 3 -38 27 4 -43 12 -2 11 -22 -1 -49 -10 -15 0 7 -15 27 -11 -2 23 -21 25 25 13 -47 -20 37 -10 -40 -26 14 30 5 -12 31 -17 -59 29 2 -26 -54 -37 -18 -5 -47 -20 -29 17 -26 -27 4 -55 -4 33 1 -28 12 -41 -19 26 -61 12 18 20 -12 -45 -14 -48 10 16 -41 -56 10 -15 -31 -23 -32 -38 -2 -48 10 6 -27 -43 35 9 -50 -3 -15 -1 -7 -36 26 8 26 -16 -19 -1 4 3 -9 -46 21 9 39 -33 -13 -23 -4 21 38 22 -27 -19 -24 -47 49 -24 6 49 2 14 -23 -34 38 -3 -16 -36 -12 -36 15 -8 -3 -3 -41 -40 17 -8 -49 27 -39 -35 12 -10 16 -22 -4 -17 -28 43 -15 -38 26 13 7 46 21 36 30 37 -10 -35 1 -42 38 -3 -34 -1 -18 -4 -14 7 -41 -42 -21 35 -10 -7 13 4 -23 -40 31 -34 17 26 40 -16 21 2 27 8 43 -18 11 -4 -27 19 22 -41 -33 -9 43 41 -23 -6 -44 49 -28 -23 -25 0 9 40 -48 -26 44 35 33 31 -6 -49 43 7 21 13 10 7 25 31 -14 -33 -35 7 1 -2 22 -44 32 40 -26 -8 3 48 -14 -36 -22 18 -27 9 -14 -8 20 17 36 9 18 -17 -24 -23 17 38 -21 17 -5 -40 -10 -9 14 -12 -40 -27 -24 7 22 41 -28 37 42 -29 -48 40 43 -35 -38 -41 36 -46 4 7 -42 -49 3 24 16 44 9 28 -21 -11 -48 -12 39 27 15 49 10 36 4 -3 5 -7 32 -47 -44 32 -21 13 -42 3 31 13 -8 -48 -46 3 22 19 17 -50 -46 -35 -14 15 18 22 0 42 -5 7 -37 -19 -35 44 32 31 -41 45 -34 16 -36 -49 -1 -23 40 2 -33 1 27 -43 29 -7 -1 -23 -26 -13 30 31 -12 -1 -25 37 -33 2 43 47 38 13 10 34 10 -14 7 -44 36 3 45 -26 -47 -39 -2 -30 -23 -26 -14 -4 -50 -33 14 15 -41 13 -48 39 -46 37 -36 -10 -3 -48 45 -39 -38 15 -2 21 16 32 -25 -3 -22 -31 22 25 -27 -2 48 -26 -22 -9 -21 -22 -21 -47 48 26 37 27 9 -9 40 2 -11 -33 8 9 -15 29 -6 -34 -35 16 -24 48 16 -32 -26 14 -18 13 21 -9 -43 27 -26 32 21 24 31 32 -47 -8 -34 33 -16 -24 22 -11 -15 -35 25 -15 41 1 -25 31 18 19 4 42 16 -49 -1 45 44 4 -29 1 -37 13 -36 -26 32 -38 51 -14 28 -47 -48 7 17 30 -29 -23 -21 -9 -11 36 -44 9 42 25 -3 -4 -30 0 -51 -21 -36 -2 -21 11 0 15 -35 -10 0 23 3 -47 36 -48 -23 32 -44 2 4 34 -21 37 -29 -59 -15 22 -28 -44 19 -40 25 37 30 -23 -24 -36 -10 17 39 6 -53 -32 18 31 36 -24 42 -42 -16 -53 15 -11 -4 9 34 38 21 42 28 -38 10 -25 -17 -35 19 16 25 36 23 -17 -27 5 -21 -49 -9 -9 -38 15 17 41 -15 28 19 -4 -18 15 -23 -40 -43 -18 32 -32 -37 41 14 14 -55 -5 43 -56 -45 38 40 -49 -28 7 17 -14 17 -2 33 -17 28 1 1 19 9 -18 40 -1 45 -52 31 1 28 -69 5 -19 5 40 43 12 -33 44 -3 -56 37 27 34 -49 -4 -1 -30 43 8 10 13 -21 -41 -19 -46 51 -31 24 -26 11 -1 -8 34 -32 29 -33 -54 36 -31 -17 13 1 -42 30 -19 34 -50 -45 -4 -18 25 47 -47 1 -47 3 -28 5 -1 -12 -55 38 -18 -34 -41 -57 -39 -7 -8 -27 28 -39 10 38 -30 37 26 7 -51 33 47 -44 3 -29 9 4 15 -15 -20 -31 -1 -9 -3 43 -8 -15 4 30 19 -9 -32 16 37 -6 1 27 -12 -44 45 34 -24 37 -38 46 -1 8 -31 32 39 5 39 -38 -29 -29 -32 43 -13 6 -7 -47 0 -10 14 -33 -29 35 -50 31 -19 5 -11 29 2 -44 23 -31 50 35 -1 48 12 32 -20 -39 -30 -3 3 -42 40 -30 -48 18 23 -21 32 -24 -12 -47 17 26 -3 -29 -34 -13 21 47 34 -2 -8 -13 42 -49 -23 -47 17 32 19 -20 -6 -43 44 30 19 -8 40 -42 -12 3 31 -35 21 -36 -49 -51 -6 -41 -40 -15 31 -28 12 26 -40 -49 20 -50 -9 43 -22 12 44 41 -18 -42 -52 -12 -10 -32 3 0 -21 22 -30 3 18 -44 10 -16 -3 20 -2 -19 21 -21 33 6 -11 -5 -30 19 -9 -6 -40 -46 -16 17 -5 -12 -37 -24 17 14 -46 -5 -10 -9 17 4 -43 -33 -43 -23 20 -35 -31 15 -2 20 -15 -6 -59 33 -61 12 -24 34 -30 32 17 -20 -11 29 19 -4 -8 12 6 -29 7 -30 7 14 17 32 37 21 -7 -7 -56 21 -52 -56 14 -10 -15 -35 22 -35 31 -14 -48 39 28 39 13 -36 17 -34 35 17 17 -57 -21 -49 -40 -36 0 -40 21 41 41 -24 -34 -41 8 -22 48 32 5 43 35 -4 -56 20 -22 -21 27 -10 21 -30 -47 -28 -23 22 37 -50 -50 19 -4 -5 30 -18 -39 16 -37 32 -21 -23 -43 -10 31 -41 -21 22 4 15 -5 -40 -20 -1 23 -25 -49 -39 21 -52 29 24 30 20 -39 1 -5 -58 -29 -9 -20 -43 25 -35 13 26 -21 14 -56 -40 29 -27 30 20 -50 26 0 -9 -15 43 -30 25 -36 35 -55 16 41 14 2 -25 16 18 8 -21 -1 -17 19 -32 -10 -39 41 -18 -18 7 -43 -34 -33 -42 29 23 -11 36 -45 35 -33 -9 -6 9 14 16 20 3 29 10 -38 17 -29 45 -45 -41 38 -57 -27 -41 -10 19 -51 3 26 -10 -8 34 -24 38 -5 -30 1 20 30 -1 -30 -17 7 9 25 -41 -12 19 -46 45 0 -40 -31 17 21 -7 17 17 22 -38 5 42 33 44 13 31 -16 -41 5 38 23 -54 -26 -47 -43 -41 39 18 -27 -27 -4 21 -52 18 22 11 18 21 8 23 34 -38 -10 -53 -3 22 -23 -30 11 29 2 -31 -4 -20 31 1 43 39 -53 39 -26 -23 -9 7 -50 -39 -51 28 -45 -49 27 14 5 0 -54 37 -56 7 -27 16 -1 -47 -33 -34 -56 25 39 13 -14 -32 -34 11 -16 -28 -36 -49 -8 -37 27 30 26 22 22 -43 -8 34 36 -7 31 -35 33 -4 39 28 -40 37 -53 0 15 -15 5 -38 32 -59 -30 -16 -7 -37 2 -21 -45 -6 -4 -52 -29 -32 2 -15 8 12 -54 -29 3 30 -34 -1 32 77 -61 49 32 -57 53 -34 -33 81 -36 75 32 5 16 -14 -64 -21 -36 4 -10 -16 -9 -57 -37 17 199 -17 -17 24 26 32 -66 -14 3 -23 78 -54 43 42 -76 -15 9 -52 33 9 143 60 -26 -36 -42 -99 15 72 -115 -21 78 15 47 -24 30 51 -39 47 -32 -27 -60 26 -7 49 28 14 56 36 85 260 22 18 113 28 1 -45 19 56 38 109 75 -38 94 -1 136 4 0 100 127 149 44 -61 -9 -63 -56 107 -36 -9 35 63 3 22 23 -22 -28 -63 -51 -52 -7 -83 -34 36 -14 -32 -53 48 0 -26 -48 -63 30 -23 -8 50 128 48 46 1 51 -41 -98 -52 5 -59 -56 -54 -41 30 -34 -60 39 7 -20 -33 -111 -58 -25 -6 -83 43 36 42 39 71 69 22 -3 51 60 -51 -62 49 0 -62 1 -10 -19 -28 49 -51 69 -16 57 61 -11 -39 -27 -84 67 -23 -106 69 -52 -47 22 8 25 -51 -65 -51 28 41 28 3 -21 -91 42 -23 -108 -23 112 -53 93 -17 84 58 -24 88 32 10 -60 -2 -2 32 -4 24 13 -27 -69 -90 3 -54 -11 13 40 59 20 61 86 10 -25 31 39 29 26 -12 45 15 5 -5 -58 1 14 -77 -44 44 31 21 -45 19 57 18 -31 4 36 -97 15 -38 -56 -10 -97 -45 29 -39 -18 -11 23 15 8 40 -1 5 8 77 -7 -24 11 -67 -45 -17 -38 44 -44 -34 38 -81 13 -66 -63 24 -1 -46 9 -14 -28 33 47 23 11 -52 46 -33 -67 0 14 -107 43 -63 -40 -14 -29 10 21 -20 15 -91 -70 -56 -84 -71 90 -37 -55 55 33 97 -6 39 31 -81 -17 -23 51 15 -31 32 -23 -46 -25 28 91 -47 2 -135 -102 -67 -30 -11 15 46 91 23 2 81 -54 55 -27 0 51 8 -15 29 32 -76 -31 13 11 -21 36 45 130 44 47 87 -9 -37 24 -1 10 -17 -50 67 -45 -21 -26 43 29 -29 -41 81 48 -2 0 62 26 -54 -29 22 -83 61 -15 80 -51 -68 58 5 -1 71 -53 -48 21 28 48 55 29 16 -1 -39 -54 28 -137 -6 -8 -45 -23 -11 95 -38 -35 64 15 76 -6 -4 29 28 -20 -16 15 -69 -153 29 -9 20 82 109 -18 -107 -62 -5 -46 -19 -77 -38 -49 -28 62 66 -4 -59 22 -35 14 50 24 65 -67 -12 75 5 33 45 39 33 100 41 51 -63 53 -28 -47 9 48 74 -126 2 -75 -111 -53 -35 82 9 -77 -24 11 -5 -3 -4 -70 -77 20 49 80 -7 -24 37 40 5 52 4 -33 -91 -32 50 -36 -45 -23 -1 -5 -1 5 -59 39 -26 -44 30 37 17 -11 -16 -13 64 -46 41 54 0 -19 -44 -2 23 -22 -20 17 35 82 79 -171 -55 72 23 -107 -35 -10 -46 -45 26 41 -13 0 -38 -5 -11 23 95 -12 40 -84 -79 -82 16 -62 47 54 -13 -28 77 75 96 -46 17 30 -96 102 36 59 -32 -14 -57 -41 -12 -55 -18 25 84 43 115 -81 -70 7 -18 -46 5 -101 28 -41 -83 37 35 -40 -60 63 32 37 18 38 15 57 10 27 93 88 -31 -94 -16 9 -80 15 -72 -57 33 26 107 46 -8 -26 42 21 85 7 21 3 -14 21 32 -37 4 5 -59 -22 -50 -31 25 39 26 -1 12 87 80 22 -28 69 -1 37 17 68 -9 -95 -95 -54 -24 -44 30 36 -11 18 78 68 87 4 -66 22 -125 71 16 -41 53 -23 -42 45 -48 21 -56 -67 -26 37 2 49 19 -58 49 9 101 19 -28 7 10 -58 75 36 -30 32 -93 -42 39 76 33 31 -53 -13 47 -49 -70 46 -6 -72 -32 14 65 -52 7 28 -1 -1 12 73 93 0 64 10 -20 -131 55 7 26 52 39 -17 -68 -34 -28 -50 11 -46 -97 40 23 46 18 -15 -41 -25 44 14 76 50 46 -28 -20 -14 6 -100 42 -24 -28 10 86 77 -2 13 12 59 -33 36 30 26 25 -68 -9 -86 -118 -97 -15 61 -14 -59 68 15 48 -10 -66 44 -14 10 -8 25 39 -4 56 20 -17 38 54 35 59 32 27 -31 22 -48 -28 45 48 17 -54 -39 51 89 -15 15 -31 68 28 55 -16 1 21 -13 58 -66 -85 -28 39 -65 -102 -19 252 90 -56 -94 -6 115 53 51 39 -49 -105 34 35 -38 -35 27 -14 13 35 41 17 24 27 107 217 164 147 52 87 1 77 30 -45 82 15 -67 26 30 81 -39 -63 34 -47 0 53 15 -84 -38 16 -71 29 -13 25 -17 -73 9 44 1 56 8 38 -37 -19 68 37 63 -101 24 -27 -3 -9 15 -12 12 -13 33 -25 21 6 31 16 12 81 -47 22 45 61 2 45 25 -2 -16 -38 -24 15 -50 -58 -77 102 116 93 -61 4 30 -34 41 28 15 -48 -28 -27 45 31 31 -1 35 72 61 34 -8 40 -68 53 20 -28 -51 50 13 76 7 -20 -17 55 27 27 0 -43 -32 13 -31 2 -56 -21 -62 -35 7 88 -46 1 37 135 85 -124 3 -47 95 66 -32 70 24 -74 97 -17 11 7 1 -4 60 21 -19 -11 50 2 -72 31 104 -57 -38 8 -17 35 14 -26 39 -14 -36 6 2 -44 -31 47 18 -1 48 12 64 -33 -69 -45 -57 33 -26 29 -63 -32 -40 42 68 25 -65 15 49 29 26 27 73 22 44 32 8 6 5 6 0 -43 -21 1 52 57 -87 -42 -21 -34 31 -35 -32 -70 68 49 -39 37 -93 -27 29 35 -42 63 -59 -92 -58 44 32 25 -23 -2 -4 -33 25 -19 -21 -56 -68 25 49 -22 0 -119 -24 22 8 34 -50 -11 16 -49 -31 -69 76 -5 42 55 57 6 -83 14 45 41 3 32 25 85 38 80 -4 3 -47 -46 22 -31 -19 66 -36 35 -12 -72 15 -3 68 -38 -72 -32 17 22 43 1 4 -27 5 15 35 15 3 -38 -7 -69 -20 65 49 61 33 49 65 42 -2 -2 3 -57 22 37 -22 47 -66 -29 -10 8 11 30 25 -46 -40 -30 -29 -30 54 -38 -19 -62 87 -28 -65 9 -60 -17 -84 -48 59 66 32 49 68 50 53 -5 -50 -61 -114 -42 -76 15 -32 88 -19 18 75 43 10 33 85 -44 -44 115 81 3 -39 -112 60 -31 -22 -3 5 147 -40 31 18 -29 -33 26 58 -36 20 5 8 -66 11 63 72 12 -10 61 -4 -10 55 -36 26 3 29 -57 -15 37 -66 22 44 182 -21 -13 5 94 17 -106 38 -42 28 -117 4 11 -24 33 51 0 -78 -59 -50 -30 -52 -30 20 -31 -54 -9 -18 55 26 122 9 53 21 -15 9 -98 -108 -34 63 16 -43 -39 -81 15 -73 -57 -33 21 -76 5 42 29 -1 -12 16 80 42 83 88 69 -81 -75 61 106 102 54 77 43 164 11 -37 3 -22 -53 -57 20 21 9 -11 -18 33 -13 54 62 89 22 -31 60 9 -18 -53 -42 -25 -100 -4 7 21 -13 2 -14 69 -26 78 12 63 65 -37 27 -47 -49 -55 -80 -35 -16 -25 20 -4 11 17 4 -10 -57 -6 21 9 -102 55 1 -1 -8 -46 48 10 27 64 95 44 -6 32 32 73 21 48 52 48 45 -7 -38 -79 -46 -32 -51 22 10 -25 32 50 10 12 96 -10 58 30 23 70 17 30 -26 -10 30 -54 -25 -61 -32 -77 -42 -33 68 -17 -6 2 66 70 -9 -1 -14 -8 10 22 -25 -36 -12 -62 -103 0 19 61 -32 -12 12 36 3 -40 9 -20 50 -72 -33 -62 -63 21 -27 -88 45 -24 22 -35 -32 -81 -34 -2 24 -76 6 54 -31 15 60 23 -45 92 -44 -7 -3 -36 34 -11 -7 130 41 -11 -46 -46 42 -57 -21 -8 -61 -61 -40 43 -62 73 -7 98 -3 -19 109 84 29 -92 -116 -35 55 40 52 -57 -6 22 14 -14 -18 -81 -59 5 -16 -26 -14 -26 -20 30 -16 20 82 40 26 -15 53 60 -49 6 -58 -81 -66 -73 -31 25 9 42 65 80 34 15 15 32 33 -19 -30 -70 -42 -31 -16 -44 -27 47 -62 57 7 -36 44 -59 -13 -105 30 49 -3 -111 -91 -4 10 7 22 21 -56 91 11 75 -16 -41 -36 3 10 -70 -4 -26 0 -9 -52 0 1 -7 32 -101 20 16 37 -5 4 -62 19 18 -70 -167 58 -45 47 30 112 46 -54 -10 -70 -4 94 -41 -59 -106 14 -3 -6 25 -10 -28 -16 18 45 -14 -6 -61 18 59 73 44 100 11 108 -4 55 9 -37 50 -76 -26 -25 -76 -71 -86 25 -15 -62 -97 31 -34 -74 -9 3 -32 -58 -38 23 11 -23 -16 8 65 26 6 -37 -80 -3 43 -16 17 -87 17 -18 -54 17 4 -17 -23 -34 -73 -56 6 22 -74 40 39 35 71 59 -31 27 -4 37 15 -21 -20 -27 -51 -17 -44 -89 -52 26 108 52 -106 -105 -57 -31 31 0 -65 -47 -11 -99 66 63 43 8 -68 27 21 51 43 -28 -100 15 -23 -69 -38 -18 80 -26 -28 -33 -23 89 23 -10 5 -77 -77 37 -6 26 -12 -80 9 -47 22 47 -34 90 133 52 44 -117 -13 -1 55 53 -46 48 -67 18 89 56 -1 8 14 -12 15 75 24 17 16 5 -38 101 83 -1 -42 -66 -80 -37 7 -17 -12 -71 -75 11 79 -15 7 -17 -27 57 0 38 -15 -53 -22 -58 38 -3 -23 2 1 -56 -84 79 59 -32 8 28 7 18 0 3 25 -51 -26 -46 48 4 -47 -65 -83 -14 -53 -1 -3 12 -46 3 -65 81 37 -43 -39 -126 -27 38 15 5 -138 -21 68 14 -19 -33 -56 -58 -61 -30 6 49 -24 -83 -32 -24 44 -31 -64 -60 -85 8 86 45 -40 -49 -102 14 5 39 -69 -8 18 -7 -34 -109 30 -9 52 -23 -1 22 -43 -6 -84 23 68 -17 11 -69 2 50 17 -81 -100 -15 65 80 57 144 -105 -27 -60 -70 -76 -16 48 -73 -89 -134 64 18 4 2 7 4 76 23 67 -11 -73 -65 -30 -88 -37 38 63 23 52 -29 41 27 15 61 -69 -134 -8 5 -10 -41 -49 -44 -1 -29 -5 9 79 37 -25 -13 58 3 31 44 101 -3 -51 -21 -21 -7 8 46 -6 17 17 -16 59 42 7 53 20 38 55 -55 35 -7 0 -29 -19 27 42 -30 -23 32 14 17 -17 55 59 89 10 -16 27 73 103 27 -22 -33 73 130 62 -78 49 106 8 69 -24 14 -47 -49 -6 -14 -12 26 39 70 -17 -23 11 -25 97 100 -34 -84 38 53 -130 66 32 3 -66 -146 124 -57 26 -36 33 39 -30 60 83 129 69 58 6 -5 16 94 19 -24 39 9 -53 -80 26 83 -41 -50 -6 -2 36 -36 -9 -26 51 -17 32 4 40 111 -32 52 10 -10 44 -16 52 22 -93 0 85 -33 -33 -10 50 52 -5 -19 17 7 -25 -19 83 7 89 -69 -22 210 75 25 -58 69 69 26 35 4 6 -72 -10 -20 16 -13 -42 29 48 38 25 33 9 -10 -10 67 14 57 -41 14 -1 -46 -65 -5 15 31 -9 9 23 -5 63 -24 -22 83 6 70 5 -30 62 67 -82 49 21 25 -22 -28 145 77 26 -4 41 48 -45 -5 76 -15 7 -24 -8 65 -67 2 46 21 -55 53 76 79 97 40 17 -15 29 29 19 17 -51 -48 -13 68 -61 -4 30 74 -6 -2 -45 28 -6 -28 19 6 85 74 -21 9 50 -31 24 13 20 -19 -78 -8 67 -3 -34 -21 73 51 58 21 62 48 2 64 80 5 44 31 -22 -12 -6 15 -55 -13 54 -44 -25 -19 62 -26 -35 44 51 56 -23 6 9 -15 21 -38 30 12 31 9 30 10 -21 11 17 -47 25 41 -21 78 24 -35 57 0 -9 55 39 70 -107 14 49 55 -34 -24 105 -8 -92 -19 49 -9 -66 52 67 18 -73 -16 53 38 4 39 26 41 59 -5 36 3 -39 45 -51 34 -24 -3 9 82 -5 -38 -24 -4 15 -58 -27 12 70 6 -5 -44 -1 0 2 45 54 -2 5 56 -15 -92 -75 -35 -5 25 -18 37 62 -31 4 -35 29 -3 25 74 21 35 37 32 41 -14 -4 -42 -40 -33 -33 -19 -41 -16 -9 15 46 -29 -26 -19 0 -33 -38 -6 25 14 3 5 -19 32 -32 21 -1 -13 25 10 26 10 -36 -25 -36 -21 15 47 -2 45 26 -7 18 -48 -48 34 -26 -24 -23 -13 21 20 19 -32 43 12 26 -27 10 -51 25 -8 35 40 -52 18 -38 -20 2 -23 45 -17 1 35 -10 33 24 -28 -43 24 12 11 -48 31 -39 -32 -37 33 -8 25 -24 1 43 19 44 16 12 15 -21 3 20 -22 12 48 -20 -8 -8 14 -2 -6 -31 6 32 -27 34 12 6 -12 8 -29 -50 -18 -13 -44 -1 -32 -39 38 -7 -9 -19 -33 -43 23 42 47 -20 -2 -25 -8 -38 47 6 -52 -50 -42 -12 9 47 -45 -15 -11 -40 41 24 -6 0 16 37 -9 -18 42 31 17 -33 -18 -39 -23 -14 -7 -30 -7 44 10 23 14 -22 -1 -19 -13 -19 13 -52 30 -35 -30 -11 12 15 -47 20 -29 -35 -33 -34 27 47 13 -21 -35 -12 13 -14 24 18 9 8 -16 43 46 46 7 0 -50 -30 32 -3 4 -13 -37 -24 6 8 -7 8 2 25 -14 -12 9 6 -41 -46 -52 9 -12 -47 26 -50 19 16 43 -47 -14 -28 -2 -32 -14 -48 14 12 -5 21 -46 -46 8 12 23 -43 8 -26 -39 -15 48 6 24 -35 44 -38 -7 23 -44 14 19 -30 -12 -37 21 21 -6 -30 21 -6 45 33 23 -1 13 36 -18 30 -2 -19 -1 -14 -42 2 45 15 -38 -7 -38 26 -3 -10 -1 15 10 -36 17 7 -7 19 -34 -1 24 -51 -20 40 -2 -16 -38 26 -34 -34 46 -48 21 31 16 -3 -33 -23 22 2 29 18 15 20 4 8 36 -3 43 19 46 42 -7 8 30 -22 -30 12 -26 -32 -15 -17 42 17 -20 1 -53 -14 14 8 -25 -13 -49 -8 -6 -45 5 37 -6 35 -33 7 -39 16 0 3 -47 -26 -26 45 3 -39 -11 21 -23 -32 10 -33 -11 -19 32 27 43 12 60 57 -73 51 55 120 39 -102 39 47 56 104 32 -17 52 29 103 4 1 25 -30 77 76 64 3 21 88 -16 -18 -31 91 68 -33 -67 32 52 33 -64 1 -10 70 15 -35 72 31 29 51 42 10 48 105 -56 -202 -26 112 31 10 -22 -10 70 6 51 78 -5 35 95 108 -6 4 -25 -21 16 69 14 -57 -7 -126 -62 -101 89 -47 -37 56 38 46 -130 14 154 -25 -29 6 35 -5 -10 81 -3 43 43 142 70 1 20 -15 -36 -86 104 42 30 25 -28 7 76 49 88 40 -4 50 12 116 53 20 39 -50 74 83 11 95 43 -4 20 35 40 34 -42 3 65 75 7 29 70 8 31 13 -12 51 42 -28 -19 169 91 -150 -128 -16 109 42 -4 70 22 7 62 11 28 15 31 49 122 46 68 -13 14 -20 51 33 109 73 -3 117 37 -12 -56 -40 117 53 130 36 -3 68 21 54 18 -27 61 43 173 22 -3 57 -11 7 111 -21 -125 -18 55 106 50 7 38 -29 37 24 65 37 -65 122 101 28 7 46 -44 -33 4 -14 61 13 12 -38 -91 36 46 96 34 0 -25 -24 83 75 -7 -7 37 95 92 44 20 -7 8 53 63 46 89 84 1 25 55 69 -13 119 60 24 -43 21 78 52 -11 -19 63 58 -8 39 -2 17 56 -26 24 -24 56 116 92 29 -7 -34 78 20 121 37 26 97 76 33 -7 17 49 -9 105 13 -23 -25 -36 -21 9 68 37 -44 -2 -20 57 73 102 5 13 40 88 88 27 -38 -51 24 6 160 12 -59 -27 -35 81 47 -33 30 65 18 -67 53 37 12 -18 -40 98 43 -12 18 52 25 35 13 19 -1 97 53 -65 97 49 30 68 -50 17 32 115 96 -102 -50 -39 22 19 59 20 28 110 79 15 -13 1 12 -41 58 6 12 29 93 2 -65 -26 98 64 -10 86 26 11 66 56 34 53 -7 12 -23 89 98 32 35 5 47 45 -25 -36 -14 47 -48 -29 -19 -11 30 -7 -40 -45 24 16 -33 -7 -17 19 8 -16 -1 2 13 29 -28 0 -8 14 9 39 -13 37 -24 13 -43 14 -25 -24 43 -8 -37 37 -38 -40 20 -35 39 29 -48 12 26 -7 -36 -20 -2 -23 -27 -21 -26 7 28 3 -36 -21 -49 -27 -3 -47 36 38 26 45 46 -43 14 36 44 13 41 45 -50 35 -5 35 7 28 -26 -13 -26 46 25 46 27 8 -13 11 -3 -40 -38 17 -5 -32 49 14 -41 -8 27 -11 -34 -32 -37 -38 7 0 -16 -1 42 -6 19 8 -19 -22 41 7 -49 38 -20 -32 47 38 -40 18 45 -23 12 0 42 -43 -40 -27 10 -12 -12 49 -23 -21 50 -31 -8 6 -42 -6 -21 -38 -26 31 -42 10 24 -35 -25 2 -23 7 45 -43 -31 30 -42 -46 23 -26 19 -39 -27 1 11 50 -23 -45 -25 -43 -31 12 -22 -34 36 6 44 2 -7 46 8 44 -40 15 46 37 -43 27 40 -46 14 4 -15 -38 -10 25 14 48 -43 -23 44 -34 -12 -49 -33 -17 3 -2 9 -21 -40 26 -18 -40 -13 -16 28 -13 22 -6 12 12 10 -9 18 25 50 -10 -45 12 -2 1 0 47 16 -36 -26 -6 -32 -7 31 -46 18 -5 -8 -31 -11 12 40 -10 17 10 16 -15 31 -47 -11 27 36 -35 45 -7 7 -24 -19 26 -17 5 -45 -42 10 25 -13 45 -46 -34 -36 2 -47 -2 -32 15 -43 21 -4 -34 45 -47 38 -21 26 -36 17 47 -8 12 -16 -32 -5 -49 29 -33 29 -30 -34 16 45 35 9 23 46 -25 5 -31 -44 -31 23 -37 13 -4 47 50 41 20 -25 -45 14 41 14 16 13 -7 -23 -23 16 18 -27 -31 12 27 10 -1 25 21 42 37 22 -19 -27 31 -20 -43 -5 22 -22 -41 27 46 -39 -7 25 36 2 -39 39 8 -20 -38 -23 44 11 22 0 -22 -46 -46 18 20 10 -6 49 -35 -47 -41 -13 -50 -25 -54 41 46 -64 44 -42 1 -15 27 19 -12 10 1 75 -26 -13 -10 -58 -88 3 14 -18 42 11 16 -52 -29 -30 -32 -10 -16 -26 26 -60 43 26 -27 40 78 33 -35 -27 -8 26 -34 -3 -2 20 -9 -7 -19 150 35 -108 -43 11 11 70 11 -16 -36 25 -42 40 7 64 -14 -67 13 25 -36 72 28 -4 -63 -88 13 -93 20 13 46 14 -94 -21 -21 -26 -23 62 106 4 99 -17 -10 -19 -8 -35 7 36 -2 6 -44 -9 -2 22 -69 -58 -14 -4 -10 72 24 -55 -67 -25 9 6 55 0 -15 34 -1 -6 36 0 20 -47 -16 -17 -7 -80 18 -44 24 -34 31 -28 3 -1 -44 47 18 7 97 61 37 -25 61 0 108 73 116 11 -26 -16 36 1 50 79 20 -52 -23 -7 26 7 -29 -11 -12 -13 -62 29 -5 -10 65 5 -75 -24 -49 60 69 -27 15 -95 -56 52 53 -11 39 -42 -44 35 67 12 17 51 57 -62 -25 -14 -34 40 101 71 -65 13 44 -73 3 40 29 -58 -2 13 -21 -12 6 -6 -4 -27 -10 30 53 48 -7 -30 63 55 51 25 -50 -32 -67 24 5 76 -13 -71 -64 -34 41 -6 8 -30 -21 28 -3 -12 -8 -4 30 -12 50 62 -7 -42 -29 -74 21 56 80 -52 -42 17 -58 30 -1 62 29 -2 26 10 31 44 46 62 -84 -82 -19 4 73 2 -48 -52 34 47 133 -15 10 -54 42 77 51 50 22 4 119 -12 -85 -25 53 -42 -86 -16 28 33 20 -87 -48 39 16 1 31 -54 -47 14 90 47 -21 38 54 99 -52 -37 61 49 26 -25 -3 42 50 -45 20 -23 27 -31 60 -8 -37 50 21 77 18 21 -24 -22 59 24 -44 6 -19 33 87 78 19 -36 -37 -19 58 80 9 -55 -30 -73 22 -9 15 -43 -41 -21 11 20 51 66 55 34 -39 -70 31 -19 1 -25 -37 -43 -26 -6 59 8 -11 22 5 62 61 43 59 10 -2 -61 -46 -37 13 21 5 -32 71 119 31 80 90 -39 81 -17 49 82 27 -13 55 74 122 89 -43 52 59 22 -7 -17 79 40 28 57 95 17 39 41 86 41 -3 37 51 28 -35 52 28 109 7 -46 20 39 81 57 35 38 -3 -28 24 108 27 72 20 -62 83 26 66 73 80 47 -20 74 48 93 -14 42 63 2 47 67 10 10 157 184 145 70 40 78 -27 165 -12 29 47 34 117 56 142 65 90 74 66 74 75 27 68 0 15 -47 -6 86 16 9 79 65 17 5 -1 18 17 27 -14 -6 46 36 -12 35 -17 19 76 2 -18 61 -16 -7 71 89 28 22 66 6 51 78 15 65 22 25 81 64 6 59 51 56 37 -6 31 -53 -47 11 62 98 37 -69 -29 12 64 66 108 76 46 81 48 63 92 48 64 77 33 40 21 15 9 56 29 47 108 63 52 81 17 3 48 -52 82 43 -45 16 29 -29 32 25 -84 52 82 72 3 124 60 130 143 140 63 38 2 25 143 76 134 49 28 48 42 92 85 77 34 -12 66 6 30 33 10 -17 -36 47 69 52 -14 24 2 143 77 40 48 37 14 27 29 66 98 42 56 -25 63 76 -12 0 -43 -40 31 74 10 36 -9 54 24 40 74 86 100 32 21 35 -16 76 43 30 -6 42 14 75 95 73 -21 41 72 63 77 100 55 37 42 35 52 111 68 109 -67 55 104 -17 -96 11 6 33 22 83 76 48 -5 120 79 119 36 2 9 -30 -27 81 67 22 94 24 -25 50 14 16 56 53 11 66 54 74 -53 64 78 76 57 85 102 36 52 24 63 -15 14 -31 -3 91 -14 -33 30 -19 8 85 55 -43 -14 -28 98 85 59 35 -5 -23 62 52 104 125 7 -21 -19 72 15 8 47 59 52 52 -28 50 73 8 42 10 128 -14 68 131 94 -42 -11 69 60 69 57 53 -28 -10 77 48 41 -60 30 19 66 63 66 -42 17 -107 -45 -36 80 8 -139 -69 -34 76 -34 -150 -29 -26 40 33 37 -57 -2 58 32 -43 -8 -25 -19 65 -53 4 -28 -41 31 -88 -81 -25 99 0 -100 -97 2 35 -118 -42 -27 79 30 -38 51 55 44 4 -132 -35 -54 -25 54 -59 -84 31 84 -40 10 -34 -49 -26 -35 98 -10 -84 -35 7 14 -90 41 92 63 -63 -39 44 -69 83 -16 41 -39 72 42 -12 61 14 131 -113 121 84 124 132 109 162 -47 -23 26 46 17 -29 38 39 -13 56 1 5 -93 74 34 -27 -95 -32 -10 -22 -95 -112 -17 -66 -62 105 57 -21 -17 30 -12 -4 35 -25 -16 -16 46 -27 24 23 -51 -107 -40 73 -70 -46 -77 6 -50 -114 86 46 -32 -61 44 107 7 82 -5 -13 -19 77 -39 -56 45 -47 -2 -20 78 -34 8 -52 17 19 -69 -88 -21 6 79 18 -67 -27 -66 20 88 40 -90 -29 -4 54 -63 -132 -85 10 -41 -103 -30 -75 27 60 84 21 36 -81 27 100 36 7 6 -73 42 17 9 -36 -14 8 10 40 -27 77 -7 -66 8 -4 -68 -101 -4 -41 -42 -87 -57 -37 9 60 9 -91 57 6 68 26 -66 2 11 44 50 15 -53 2 13 -42 -35 16 -37 -44 -64 -35 -31 -22 73 -49 -17 -33 -1 4 43 -20 -13 -13 -2 0 -42 -65 -53 5 -72 -95 -15 41 -21 28 8 -14 -1 9 25 -10 -47 -71 36 75 -84 -112 -6 -109 -24 -3 -97 -154 1 65 -10 68 39 -19 14 -79 -10 -22 90 -15 -40 -45 62 -55 12 -11 -106 -108 38 11 -89 -68 -99 31 41 -75 -54 21 -2 90 0 35 32 -20 74 -71 33 -88 97 87 -96 -82 -44 35 -62 -57 -91 -30 -24 -95 95 5 -42 15 22 -21 -19 21 45 56 -92 44 7 62 -13 -57 -42 63 94 -10 0 -113 34 -40 -25 -130 -11 11 51 56 -59 35 19 56 69 -52 -66 -13 -15 18 -36 -124 26 -58 -76 -83 69 -100 9 140 122 6 -6 -39 -22 -34 17 72 19 57 -10 -37 57 29 18 50 10 17 -55 -29 20 1 -23 21 -57 31 55 14 57 37 1 -25 -30 -46 6 0 15 38 -54 -29 7 25 12 43 40 8 71 -25 -16 45 -37 66 -8 19 9 -172 70 31 27 41 7 24 -6 25 -53 52 -25 -80 -71 -9 8 40 64 -46 37 -39 21 -11 -62 -82 -147 31 -78 -41 -104 -57 52 20 -15 -94 71 88 -8 7 -23 50 17 -60 -65 -71 -49 56 90 13 -1 15 -23 -41 -15 -29 -7 -69 -26 12 -57 7 -32 64 1 16 65 3 -4 59 103 39 46 16 40 77 33 21 31 -9 -19 35 -40 -77 0 -66 -56 4 5 -26 18 -14 14 14 -20 72 65 -22 -21 29 -115 -102 110 87 93 67 48 27 -45 -36 4 -4 -100 -23 -58 -48 -31 -36 39 35 3 -44 12 78 30 16 38 -35 -35 22 -37 47 -81 7 -5 -76 -37 -43 -5 11 62 -15 10 67 61 14 38 -25 -76 -11 -79 -69 91 52 27 87 -41 43 -59 30 29 50 7 -96 -6 -50 6 -29 -5 -54 22 -9 -46 -32 -19 -8 -79 67 63 38 101 -9 -39 30 -54 -45 12 -16 -77 -33 -61 -53 -14 -15 -18 -52 45 65 1 64 89 37 10 51 26 36 16 -3 -71 -56 -15 -7 -3 -24 -49 1 -15 0 53 74 -28 -17 -13 27 43 72 11 -15 4 -39 -31 -19 -18 -40 19 -46 33 -28 -1 52 -16 -41 -99 28 43 8 -50 44 57 81 83 40 -34 11 -13 -9 45 -24 -5 1 -85 42 -6 39 -35 -26 -54 -13 15 62 -10 55 14 8 87 31 50 33 50 -22 -2 -29 -83 4 -62 -22 15 -57 -11 -10 9 13 14 -32 51 -11 46 26 15 -45 6 -34 50 78 48 87 27 -49 -19 -55 -50 6 -30 18 -56 -17 -82 9 25 43 21 37 5 -10 47 3 54 -5 -47 -82 -27 2 -71 -53 -37 5 -9 60 -10 66 19 38 -57 83 109 91 41 37 -45 -22 -5 1 -49 -3 38 6 -1 -11 2 -13 -21 5 -19 -4 -19 -7 30 -11 -38 24 41 -20 11 -36 7 9 2 -46 -28 -20 -4 -18 7 29 -24 -32 20 -2 -2 -24 40 -31 23 -31 42 0 27 -7 24 35 -35 7 -10 -47 2 -9 49 -3 -25 38 -42 -7 44 -2 -36 46 -5 -40 -21 30 40 8 21 -13 24 8 -43 8 35 -42 -47 -13 5 -2 35 -45 -15 -38 31 -25 47 28 46 -27 13 -32 42 -9 5 26 1 46 -10 -36 -34 0 10 10 39 -41 -33 -19 19 -7 0 -47 -36 -27 22 -21 40 35 -33 26 -48 22 -5 18 41 -26 -12 -4 -3 -13 6 11 14 -2 7 -27 -17 -44 -6 -22 -37 -16 -49 -34 48 31 -11 21 -11 -2 -27 5 -39 39 -30 -32 10 -45 41 48 48 -29 31 -37 -31 7 48 -13 -17 3 -17 -36 -24 -38 8 1 37 -6 6 36 -11 -12 -37 11 16 26 -19 24 7 -2 37 -7 28 -15 25 -21 -12 8 34 -7 27 33 15 -27 -31 -41 -33 4 -25 14 -42 38 7 34 -21 -38 -19 12 -42 -29 -30 41 34 -13 -8 -4 48 34 -14 11 -20 -28 -45 -44 2 -29 12 -10 -45 -42 14 32 -37 -11 -9 25 -22 49 -32 -32 16 -9 -17 -13 32 -6 -24 -3 -32 40 23 -5 18 -36 32 2 -31 40 36 -13 -48 38 -16 -29 49 -43 -49 6 -2 9 -1 -16 -35 11 17 -40 1 -29 -29 -27 -26 -10 14 12 -31 -19 0 -2 -33 -10 -41 -36 50 45 -3 25 -41 -20 -42 9 10 -3 7 -44 -19 -34 8 -18 -41 45 18 48 -26 6 -41 -20 -30 43 30 -31 -6 35 -3 29 -19 21 -31 -19 -15 -2 2 36 -34 -9 21 20 -29 39 23 -11 -34 -21 5 -25 14 -48 43 49 -44 -39 -26 -38 11 44 -39 -39 5 49 -3 -12 -11 0 -25 -4 23 -30 -26 -7 1 -37 19 1 13 -6 -7 -46 -40 -38 -10 -13 -40 14 19 -25 -1 -8 -24 38 38 0 -23 17 -34 25 -48 4 -21 -10 -37 31 18 -8 -9 38 10 45 13 41 6 21 -48 18 4 -35 24 16 26 -4 41 -23 -16 -31 27 27 0 -21 -49 32 42 -34 4 12 -15 -1 14 5 37 -31 -43 17 11 -29 -19 19 -11 6 15 -42 -10 -44 -22 6 19 -37 6 -34 -16 -35 19 40 24 -24 -21 -39 30 -6 42 -28 28 7 20 23 41 26 37 29 -26 -38 36 -7 -47 -34 -13 -17 25 -42 -7 -2 1 -29 -8 7 44 4 35 -33 -20 20 -34 -7 -35 41 -16 25 -11 8 18 -7 -15 -48 36 -19 -47 -22 -43 10 -25 28 42 -3 -39 -47 -12 -38 22 35 41 -9 17 -47 -25 41 -35 -48 -22 44 -47 10 45 -37 22 15 43 -37 -42 -49 14 28 4 -16 6 -4 -16 36 -38 35 -9 33 -23 23 -46 -44 21 35 -41 -19 -40 -36 5 -11 4 -43 23 -23 19 34 42 39 -19 24 -3 10 -6 20 -25 9 24 -7 43 2 18 -7 2 37 -26 -12 -42 43 -34 -31 -16 40 -39 -31 46 -48 22 19 -20 30 -2 23 29 33 26 -30 -26 26 -36 -18 -43 39 -14 -29 -13 -42 -20 42 21 -17 13 4 -43 32 25 33 8 25 31 -8 47 4 20 8 -10 -21 33 19 5 2 -28 -21 12 -42 -41 12 -44 48 43 -6 -25 2 -16 -15 -21 -3 46 -33 -13 -32 46 37 3 -18 -23 -35 25 13 -45 34 -46 21 43 22 12 -23 -47 -13 26 31 -16 0 -27 -38 28 17 49 -40 34 -25 45 -30 -11 31 20 -42 -15 -47 -28 -5 -38 -24 -3 -29 -42 -39 2 38 -50 -36 42 11 18 30 -6 14 -6 23 7 -34 4 33 14 -15 31 32 -8 -38 11 2 34 -44 -9 33 -44 -14 -27 35 -19 -5 -35 -7 -6 -21 -36 -36 11 -7 -43 49 14 -27 49 36 -18 19 -17 39 22 -21 45 13 -47 2 -23 -38 -16 -39 -24 -39 32 7 10 -40 -22 -12 3 -58 -17 60 0 95 41 71 2 -25 -27 1 73 -11 -32 36 47 -9 -13 -48 -31 74 1 -14 50 9 18 -24 73 3 -39 -44 0 58 -17 43 -29 39 7 -7 -29 20 38 0 -55 -36 58 -18 57 46 13 -234 -46 -37 84 79 -42 2 -21 4 29 3 -9 65 27 -34 -28 -1 39 -26 39 5 -46 30 -61 -115 -6 85 36 -78 73 14 28 -90 -3 21 -21 -10 -9 6 17 19 -4 15 -28 -47 3 -85 4 66 -7 32 -60 49 -19 -39 67 71 66 -33 -33 16 89 73 47 -7 -14 12 -23 46 -2 66 -15 3 73 -10 35 -79 -20 26 -36 -36 62 70 40 0 -26 70 58 -24 74 43 2 -60 61 -10 46 55 -15 26 -140 -60 -101 -4 81 31 -32 -73 -20 18 -40 32 40 37 14 -25 -49 -5 77 -20 54 -4 -19 -55 -10 85 3 22 31 -53 -46 71 86 62 72 -53 20 -41 2 -4 32 31 -40 0 -19 30 60 61 122 -47 -115 -77 -47 8 26 -9 -37 -29 -30 44 28 59 -14 30 31 -51 21 43 60 43 28 -3 -46 31 11 -9 -153 -47 -15 -13 72 -55 -24 -45 -54 23 -12 68 -15 -33 42 17 62 4 -2 53 -19 13 46 80 56 25 25 -5 22 -5 34 13 46 -27 14 57 38 47 -18 40 41 21 1 -7 62 18 -86 21 40 -8 19 33 22 -35 55 67 86 16 3 25 -1 7 84 32 4 58 -39 19 42 2 21 8 -18 -1 104 -32 20 -48 27 69 82 73 7 28 -51 -4 -10 64 48 3 -13 22 74 51 -21 20 -20 46 86 -39 -21 -18 -1 -6 -34 -6 42 75 -46 47 37 21 1 6 24 15 81 39 -10 -31 53 -80 1 83 38 -37 -9 18 34 39 13 -41 -22 20 8 10 62 49 11 -11 46 46 77 34 30 15 -21 -15 37 47 22 39 -38 -22 -1 19 81 26 10 6 -5 46 -27 51 49 70 -38 -19 19 -13 -26 3 -5 2 26 -3 21 -7 -3 44 38 -23 8 19 -14 -9 -28 -26 -8 -24 43 27 -23 -36 27 -3 -27 11 16 -33 -27 30 -9 -14 -7 -7 40 31 -37 -11 -15 19 34 -6 -47 46 -17 -45 -53 29 -13 32 -6 -53 -24 9 28 -30 26 3 -17 4 12 -46 -35 32 -47 -19 -50 42 -42 20 7 -36 23 28 -12 34 -19 -41 4 16 -41 -51 -48 35 -15 36 11 -26 -11 -36 -13 34 -15 -32 48 14 -7 -51 -14 9 -5 -30 31 -52 30 -23 -1 -48 10 29 -3 -16 3 25 -12 7 -13 5 -18 -18 -59 -14 6 -47 -30 47 12 18 -30 41 45 -32 32 8 9 40 -48 -6 25 -1 -28 37 -1 -16 9 -44 8 22 2 -23 31 -29 6 17 -48 -25 -37 19 33 -25 30 -12 -43 37 22 0 -19 -44 -39 -21 -46 -37 -15 21 2 -31 -23 -41 -16 20 -23 35 29 -31 -37 -50 25 -5 42 -34 -14 -54 8 6 6 40 -32 13 47 -43 -29 -37 41 43 24 3 -21 -15 -35 -36 42 1 -53 -26 -2 -47 -8 -10 19 46 -50 13 -23 -53 -4 -28 -28 8 -51 -34 38 0 -2 37 11 23 -41 -26 -44 -5 26 -25 -47 -11 16 -29 23 -17 -13 -29 -46 5 29 17 29 -22 32 -20 -21 -6 -24 23 24 41 21 19 -10 -23 -32 -24 -45 -51 -8 38 11 -51 -43 29 -11 2 -40 -37 20 40 13 44 6 -6 -16 -24 10 -49 2 -45 -40 16 -36 -1 -10 9 -22 25 27 41 48 12 36 28 -53 30 42 40 -26 24 8 39 -4 -14 5 32 -36 40 -43 19 7 22 -40 -46 31 -24 39 -7 24 -25 26 -22 -33 -6 45 17 33 -6 -52 5 -48 -17 2 32 -29 -36 15 -3 -18 12 -8 -14 31 -12 -18 -10 26 42 31 4 30 -12 8 -1 -39 -3 31 5 -6 -25 25 -47 -35 -1 8 -39 13 -31 -49 -17 16 13 -7 -54 -23 -48 7 -16 42 26 19 -35 33 -15 27 13 8 -34 13 93 12 30 -10 -43 149 45 30 22 -33 -2 38 31 95 62 -39 31 38 -12 -33 -66 40 15 9 43 129 76 73 42 74 120 11 -3 -54 -49 -23 37 3 -5 55 -63 60 -7 74 106 29 63 -41 -13 -13 34 -30 39 23 -28 55 -11 35 62 52 31 -30 69 51 -8 -100 61 11 -6 -6 -28 55 -7 -33 44 45 46 64 0 20 -51 -111 -87 -96 -27 -74 -73 -67 43 52 21 -12 -46 -8 -17 47 -59 75 32 8 55 51 43 74 36 73 -44 34 33 -28 -63 -69 19 -48 19 -10 86 63 94 53 67 -17 40 68 -20 107 65 10 21 62 56 17 -19 -21 8 -12 -36 16 -27 -55 7 -25 13 82 131 -36 -96 -4 83 47 -26 -79 -57 -14 43 69 65 22 51 0 23 -23 63 65 60 -27 31 -4 -32 -50 -20 14 -9 -23 22 115 19 73 66 50 -64 -42 11 67 5 -69 104 28 -14 14 45 96 107 10 29 98 -30 -50 7 96 -32 -6 -38 -56 74 85 -14 12 48 -1 81 -47 3 57 7 -60 -17 29 8 33 35 -1 4 33 23 36 12 37 14 14 139 -9 59 48 70 -2 -5 36 54 48 -58 -1 39 32 -40 17 -19 -5 -46 66 89 51 24 -21 -11 69 56 29 63 45 -38 23 -6 -21 32 -50 -16 19 -35 -13 4 -14 34 59 16 76 32 20 23 -6 37 -40 -62 50 -29 -11 45 29 -16 99 39 83 108 1 9 19 53 -17 16 -35 102 -36 26 58 -55 17 -37 -7 80 30 3 -2 38 2 -16 -32 46 80 67 7 73 -23 41 17 -48 40 56 3 78 37 12 35 58 -20 -14 -48 -14 5 -20 14 -17 -14 3 61 50 86 27 55 -13 -66 20 -1 -20 -40 7 73 74 99 59 43 20 -40 -8 -20 38 -58 13 -25 -56 -69 2 -17 76 19 65 28 26 95 18 2 59 -39 -22 -14 -1 -47 11 14 41 75 64 43 88 75 59 42 7 38 105 -38 -75 65 12 54 8 34 -24 24 -15 13 1 -3 67 -19 -16 -5 22 33 92 56 14 21 17 11 -6 -69 -29 27 49 -74 -5 57 24 16 25 9 68 27 -29 91 42 85 80 -8 -36 26 20 116 60 -2 -169 -24 94 35 21 -5 25 -39 4 48 -16 96 -15 9 -21 -40 -18 14 50 85 76 -25 1 9 -93 -24 -22 23 -4 77 32 75 127 37 86 -26 63 17 39 56 -75 -4 -56 43 -42 -10 6 -2 12 61 -30 3 20 18 -52 -20 -38 -3 62 -61 -11 62 89 29 20 70 53 66 37 77 5 51 31 33 31 -56 -12 -24 37 -35 -42 -59 2 14 44 -1 32 4 -17 67 118 44 82 78 51 100 47 20 -27 -27 20 66 13 86 78 -61 -38 -48 9 33 50 -40 15 -27 -11 51 62 11 84 29 98 43 1 -13 12 -1 -13 17 27 -4 53 36 35 70 -53 -12 -36 10 77 4 70 -55 38 19 79 -4 14 136 16 1 -53 -13 68 41 20 -84 34 31 -53 37 11 19 58 64 -27 58 14 -2 26 39 87 17 78 96 21 -28 58 10 78 59 -21 26 -34 -34 17 51 -23 92 -46 -43 -6 3 4 28 24 10 16 10 83 19 23 -9 -36 -21 75 -9 17 19 -7 18 40 66 32 99 -3 -15 44 60 57 73 89 22 -62 40 88 12 -58 -28 1 16 -25 -8 125 -11 -16 9 -28 20 124 27 -6 -70 8 32 -27 -4 6 0 73 102 50 -48 -32 -25 30 50 47 44 6 -42 43 -24 72 62 26 -9 -30 22 69 39 29 28 27 109 53 -14 -29 38 9 -69 -47 -55 58 37 -47 21 -10 9 50 28 48 -13 67 19 60 12 61 77 117 33 -41 57 1 25 -23 43 -31 -2 -8 -2 15 42 49 -12 -46 -38 39 83 101 46 55 20 -50 35 8 -37 7 -4 10 16 -14 28 101 54 -42 27 12 65 87 68 116 -75 -3 61 42 22 -79 -64 35 25 -66 -29 -1 36 44 -15 -47 -30 23 -91 3 -21 -2 56 42 -28 54 -27 7 51 42 -32 -46 34 -39 -27 4 15 71 91 -7 -9 4 13 -2 -46 56 -23 -6 -28 -24 -7 8 24 16 -37 -61 -6 75 104 -83 26 9 -46 -36 2 13 -10 -45 5 66 -2 -21 44 46 -92 -38 -33 20 -7 47 25 -31 -30 -128 -43 85 -9 33 -64 53 31 -79 -110 29 7 -48 3 -33 101 -26 5 30 -112 -56 11 -25 -48 -10 54 -17 -76 6 -19 23 13 51 97 12 27 2 17 9 -68 -32 77 -22 -9 20 36 4 -10 -51 0 7 43 -73 -61 25 -52 -38 12 32 86 51 -22 47 19 -9 -58 -1 4 -81 -22 -4 -5 -49 25 -21 -47 19 -34 -128 -30 108 -8 -71 32 39 16 -24 9 21 50 -70 -71 -26 4 -52 -35 -23 -44 -102 -81 -35 22 -13 70 46 32 12 42 8 43 63 -21 -29 -60 -7 -18 7 46 25 -2 44 73 -50 75 29 -1 18 -57 -84 -1 -41 52 -7 -34 -12 3 -30 -3 30 43 -7 -16 -23 14 -29 -55 -25 -46 39 80 92 13 -23 7 -44 -17 7 -33 4 39 30 -63 14 26 10 -45 -45 -43 2 31 -7 41 -72 -48 8 91 47 -7 -52 -19 20 36 22 5 57 58 -1 39 0 28 -24 -40 8 -19 -42 -8 73 -86 -55 -53 25 -7 -8 31 21 28 32 75 55 13 7 19 -41 -107 7 49 36 20 59 -33 37 -29 -75 -18 6 38 58 29 26 -46 -58 -40 59 -22 -11 -8 28 -63 -60 -1 88 -11 116 -29 24 -3 12 -40 30 21 0 8 -27 -65 -6 -5 14 28 2 33 -3 -113 3 67 -18 -56 24 -6 4 -23 44 19 -86 58 100 168 93 -24 -47 -8 -3 -36 -21 48 42 -13 -50 64 -1 -5 39 -29 -24 -26 5 21 -7 -83 -9 -79 21 -6 -12 36 30 38 42 63 54 13 -52 -83 8 -94 -46 26 24 21 -19 51 66 -48 38 -41 -53 10 20 -49 -20 27 35 -50 8 -27 14 4 -12 -36 -37 -27 3 40 -12 -29 -44 -19 -44 -44 1 -7 27 15 -16 30 16 -16 -37 11 -40 8 -44 -45 -4 8 -36 -34 -22 -38 38 34 -34 -9 0 36 -52 -36 15 44 -16 -4 6 14 -18 3 -35 -30 37 -18 0 -40 4 -36 -31 0 31 -20 26 17 -36 1 -45 -25 4 -3 -19 19 -41 -32 36 -47 1 25 11 36 11 -35 -27 -40 18 -51 -24 -39 24 -5 -8 -38 -16 13 0 22 -42 -29 31 40 -11 -31 0 -36 42 20 24 9 -49 42 -10 13 -30 -23 -25 -35 -14 43 32 -28 -23 15 -43 -33 -26 20 -1 -4 -1 -38 22 -17 4 -42 -37 -47 -4 20 -48 -12 -35 -33 -10 45 21 10 -51 -3 1 28 21 38 -32 -29 44 34 0 -9 29 2 -45 1 44 11 15 -19 31 32 5 10 -17 34 -25 42 4 21 16 -3 -41 -45 -24 13 18 0 9 -18 -51 -16 29 46 -40 -34 -21 47 8 -1 -15 -34 19 -3 23 40 -42 -30 1 -18 -33 -16 40 -11 24 -2 -3 11 37 -51 -31 27 -41 -14 -46 -52 11 22 16 -19 -39 26 -8 -23 -18 41 -13 -45 -16 3 9 -4 -16 -5 6 -35 -40 33 32 28 -38 39 26 46 2 43 -4 27 -3 -38 9 -6 21 -45 12 -14 22 33 -43 13 -12 -7 16 -17 -25 -43 11 -33 31 -24 -49 43 -23 -35 33 16 42 -46 34 41 34 -29 22 -27 -22 -25 2 27 21 -26 28 -32 -25 44 -40 -28 -42 32 -5 -5 46 -8 15 -1 -16 -52 -6 28 -3 -35 -26 2 -26 -34 0 22 -36 -36 -18 14 -48 -49 -40 -5 -27 -14 33 33 -11 30 -36 -1 -2 -15 -2 38 46 37 -28 29 25 25 -4 3 -22 7 -51 -23 46 45 20 29 -3 -40 17 -45 -19 12 -27 41 -16 8 -28 0 -30 47 -12 12 -23 27 21 21 -2 17 -6 -5 -8 -25 25 18 -6 32 7 -62 12 50 -4 13 -63 80 -33 -30 -39 -42 72 45 5 28 26 25 -7 59 -8 -1 -1 40 -59 7 -82 -45 46 77 -77 -59 4 43 -26 -19 22 50 -44 -15 9 -3 -37 -19 -1 5 41 -69 -85 99 -32 30 57 20 27 -90 22 -14 -26 23 7 -19 -95 15 13 -28 32 -12 102 32 -49 -58 -30 -4 20 -62 -14 165 49 1 -58 95 178 42 45 16 186 17 112 47 67 152 -33 78 49 73 175 155 65 9 90 13 -58 -18 40 27 -83 -20 -11 -25 -69 -18 -11 -48 -26 35 38 -10 -31 -53 68 34 -22 -19 -43 61 8 -11 -11 55 -17 -82 -58 14 24 -71 -60 23 2 -65 -10 -20 37 -2 -40 -28 56 -80 -79 67 58 156 -94 5 127 55 31 -63 20 29 13 -10 -25 66 49 29 -23 67 11 -37 33 -13 -15 -17 -56 20 -9 -50 71 -25 10 -38 -55 55 6 -12 1 -44 43 -19 66 10 22 -70 -77 122 25 11 -89 -79 21 46 134 -16 44 -86 38 -77 -22 93 -18 -11 -101 43 26 -1 58 -21 12 3 -33 -5 64 15 -23 92 -24 -43 29 21 26 -82 56 30 -6 -78 -10 50 44 4 -1 70 -24 10 0 -45 -10 8 -9 9 -14 -62 -21 11 36 -36 -28 18 49 55 -69 -18 4 -13 -47 30 15 39 14 -43 45 -24 0 2 -50 -17 -108 -33 57 28 -31 -36 -67 48 7 17 58 -34 44 22 78 -12 -11 24 -2 173 -49 -16 -55 -6 -35 19 53 -37 9 4 -35 -60 66 29 84 34 -45 34 -30 22 -3 -20 -39 -81 101 -87 -16 -34 -37 93 -40 -77 74 -16 14 -130 41 28 12 -52 -52 30 -42 -31 -2 16 49 -76 63 -37 -18 -54 -19 74 95 -56 20 56 -10 40 -99 38 28 -34 4 -6 40 3 37 35 10 52 28 12 -14 7 -12 -24 -21 -40 -9 -22 67 42 -48 -41 31 78 12 53 21 18 -32 -19 62 6 -60 -6 -39 82 -20 -59 10 72 18 1 25 -50 -57 25 -8 83 -24 46 20 11 18 83 139 -15 23 -50 -22 40 -6 -28 15 41 21 -7 54 10 -27 3 20 51 -23 14 -22 37 11 30 43 132 2 33 36 56 81 97 -21 24 7 19 -26 12 89 -11 -53 43 44 21 5 -15 51 -13 35 61 53 21 -18 51 -27 78 -15 -12 15 25 42 4 -21 -15 -39 31 -56 124 -17 79 -65 51 96 2 176 5 80 29 126 46 -59 -32 -58 102 -40 -5 37 11 43 14 -4 -28 47 65 18 62 37 53 27 -25 47 57 41 -18 25 105 33 31 61 56 38 30 57 24 -16 -11 54 64 7 -27 -35 -26 55 -9 -68 24 43 29 29 99 117 68 -10 39 101 140 176 96 -7 62 -89 99 49 41 18 -59 -4 -19 55 -31 -16 11 33 -5 38 87 37 70 16 8 21 73 42 21 17 -18 -28 38 49 -33 28 5 42 -40 6 73 15 49 57 57 96 83 38 -19 -20 -41 -1 23 37 48 -92 -25 101 13 69 -35 37 45 -37 70 -52 -49 -11 36 16 48 34 24 29 9 83 56 71 42 -56 -35 6 54 6 35 20 23 59 3 -8 86 48 -31 1 -29 24 7 64 20 55 56 76 106 19 -9 -15 -25 -5 65 90 -18 -4 -16 -23 -2 -34 54 35 -8 -7 82 51 49 57 74 51 27 37 87 43 3 12 -5 -8 -25 9 29 36 1 21 5 98 57 105 0 -25 118 83 30 -55 -29 -37 25 46 -11 -11 -30 32 54 89 0 44 30 42 -15 56 47 22 29 16 24 17 43 40 67 24 114 -9 -5 57 2 20 -18 50 -28 -18 3 19 38 -48 100 -21 28 23 41 85 93 19 0 -10 31 115 44 -15 13 -61 60 55 74 24 -37 -37 -13 -27 44 114 -5 38 -14 4 26 94 43 49 61 114 -12 16 35 46 31 -37 -8 -42 29 5 24 40 14 -46 89 24 9 73 42 63 -4 -24 32 9 11 -18 47 36 -29 4 7 17 -56 49 7 80 60 24 84 85 3 25 -26 -18 67 35 27 36 -63 -58 7 38 33 0 -16 18 18 17 -2 67 8 30 33 88 3 12 85 -41 -8 -10 6 37 12 -71 -152 11 36 -20 25 -34 -19 20 -8 49 -55 92 -54 26 35 12 66 8 -73 -57 -23 30 57 45 -45 6 -9 49 5 -69 -11 7 -80 -109 21 -56 98 33 -56 -43 -50 88 -130 49 -35 -31 -70 -233 -98 -62 4 47 -27 -7 31 -56 25 25 -42 39 78 18 15 31 2 89 2 25 61 25 -6 -3 74 12 16 -77 22 -9 57 3 -44 -23 37 78 -16 10 1 45 -30 -4 -12 -40 59 20 59 -14 62 -24 -17 36 -108 -40 -104 -66 31 -19 -21 -33 62 4 -86 -5 2 22 -22 54 8 8 -49 1 85 42 5 40 -38 -55 9 25 62 32 10 3 7 11 44 60 -24 70 -22 -66 -9 -112 24 58 19 -34 -100 50 82 18 -63 -50 -70 -122 -15 -42 -41 -27 47 -25 -38 -8 -78 51 12 6 104 -74 38 -9 33 67 14 34 1 -2 -20 -62 44 20 -58 -18 7 46 -26 -40 63 26 43 87 64 16 -7 -37 -47 13 59 69 5 -54 16 54 52 -18 44 18 38 17 94 34 38 14 7 28 33 55 39 66 -18 -18 34 5 60 58 -20 -52 4 2 28 44 35 13 -32 -42 -33 34 -44 8 -4 -53 75 -110 86 69 -43 29 -205 82 98 -35 9 74 -5 -1 10 -25 -19 19 -15 31 65 68 16 -24 -5 23 -12 115 27 -87 -42 -89 61 56 2 19 -39 32 26 51 -77 21 -16 -7 -36 18 -7 62 -31 -30 69 -60 67 -47 45 3 26 38 -51 -42 -58 -71 0 59 19 11 51 51 -16 -20 -69 -34 69 31 57 72 3 56 -40 7 -36 38 83 -17 -63 -61 2 68 -25 -33 -40 27 -48 30 -31 101 32 44 11 7 -18 -8 19 20 -39 -34 -124 -9 4 -42 -83 13 -3 27 -35 -33 -21 43 -11 -59 -85 -35 55 48 -9 22 -3 33 27 -17 12 2 9 -24 -34 -45 69 20 -9 -16 -11 48 41 -34 8 -59 29 -17 44 -10 -8 18 20 17 18 37 14 -7 66 58 23 44 41 -24 -31 -56 -21 74 10 -42 55 37 40 12 -49 -27 -56 5 51 32 -100 -87 -32 23 -23 -32 -16 -76 -11 81 -13 -40 54 -37 88 26 -38 56 -49 79 38 -17 55 -35 37 0 76 116 -52 11 -58 112 -24 25 -2 15 -36 26 23 9 -43 22 59 2 2 -35 -94 -49 -19 46 49 41 -11 -37 -32 -6 77 -26 4 -1 44 -11 -20 17 -37 -45 44 -24 -1 -21 -13 -33 -41 -79 -10 66 -28 -26 -29 13 49 112 85 -159 -40 -17 88 52 -8 46 28 45 -29 -33 32 -20 43 37 18 -40 -18 -42 -74 -47 -16 41 15 64 48 -25 11 35 -38 60 15 -73 -11 -44 13 56 -68 -41 -77 0 -23 -7 81 14 46 -3 8 5 80 -35 -51 -43 44 91 -65 -27 27 44 62 -66 60 -26 11 72 3 -1 -29 -35 -46 -44 -2 -37 77 58 16 -99 -51 69 -1 3 44 -40 46 63 50 -52 -41 -53 -4 48 9 8 -99 -17 -37 -40 -16 41 -10 -26 35 31 15 11 21 -32 -13 47 50 26 -14 -35 -70 30 -8 9 -22 2 -4 15 1 27 45 60 33 32 -3 20 0 63 29 22 1 -18 58 -32 -64 -70 -22 -17 33 -10 88 16 -27 69 -5 51 25 -18 -26 -54 44 -23 -11 1 20 -10 -21 11 36 -40 -73 -87 -15 17 14 92 -34 -57 -16 53 102 62 13 2 -12 21 23 22 35 -8 24 -32 64 -21 6 -3 -46 -37 11 14 -84 21 14 -34 34 125 -35 -32 -2 24 14 -38 -16 36 -47 6 36 45 14 -9 -27 27 18 -42 7 -87 -20 -2 -35 38 -16 -8 -5 8 3 18 -4 8 -44 -15 -11 22 62 -26 -46 -116 -36 -45 47 59 135 -12 39 62 7 -49 24 57 -40 -91 66 -5 -2 98 33 11 28 11 68 -16 64 14 30 41 67 -22 32 -67 -33 31 -26 44 60 20 -59 58 104 35 -11 47 15 -28 -51 0 -16 15 -48 -20 35 -89 3 70 1 62 10 35 70 -25 -99 -75 -24 6 54 62 -79 36 -13 8 21 -1 59 -21 -10 9 49 -1 29 -104 29 -36 25 89 -167 -234 -31 7 -78 -118 -55 -77 -54 -155 87 -41 0 -113 -98 45 -94 58 -1 -17 14 -39 38 -76 82 52 67 45 15 39 3 -24 17 66 53 -21 -27 66 -17 -27 7 -6 17 -18 22 106 21 49 -31 21 23 91 -9 43 95 66 4 20 97 58 15 -29 3 34 -54 -22 25 -43 -18 -78 41 49 -64 -105 -56 97 -92 -46 -133 58 90 -60 24 22 51 67 2 71 54 -2 -46 11 17 41 -28 -35 5 27 -30 14 94 37 30 46 95 -7 -15 42 41 2 -59 28 58 -72 58 -53 -43 34 -24 58 30 91 1 -8 -50 -106 -73 2 -86 -62 121 18 -49 -14 5 5 -24 61 59 35 -25 -40 38 -3 -64 -42 11 3 -61 23 -4 14 -102 -61 0 85 25 2 34 -13 16 1 66 100 8 -11 -25 17 -47 -56 -49 -50 -42 -6 -14 -8 -10 17 17 9 80 48 61 93 18 29 -23 83 66 38 -8 -55 6 -23 48 2 29 2 -72 39 54 -1 -33 76 27 10 -15 54 -45 66 -35 -40 62 -14 28 -11 23 60 -13 44 35 12 -6 -11 1 -4 85 48 63 -12 -11 28 84 -2 0 42 -58 34 -42 101 -20 14 19 -26 91 -24 -4 20 -119 -6 29 